,location,number_of_accidents
0,"(33.3427, -118.3258)",2
1,"(33.7065, -118.2879)",1
2,"(33.7065, -118.2928)",20
3,"(33.7067, -118.2879)",4
4,"(33.707, -118.2901)",1
5,"(33.707, -118.2907)",7
6,"(33.707, -118.2912)",2
7,"(33.707, -118.2928)",1
8,"(33.707, -118.2929)",9
9,"(33.707, -118.2939)",16
10,"(33.7071, -118.288)",7
11,"(33.7079, -118.2863)",2
12,"(33.7079, -118.2879)",6
13,"(33.7079, -118.2901)",1
14,"(33.7079, -118.2907)",2
15,"(33.7079, -118.2912)",1
16,"(33.7079, -118.2929)",10
17,"(33.7087, -118.2929)",3
18,"(33.7088, -118.2855)",2
19,"(33.7088, -118.2879)",10
20,"(33.7088, -118.2907)",1
21,"(33.7088, -118.2916)",1
22,"(33.7089, -118.2855)",9
23,"(33.7096, -118.2856)",1
24,"(33.7096, -118.2862)",2
25,"(33.7096, -118.2867)",1
26,"(33.7096, -118.2879)",13
27,"(33.7096, -118.29)",1
28,"(33.7096, -118.2906)",4
29,"(33.7096, -118.2929)",7
30,"(33.7105, -118.286)",3
31,"(33.7106, -118.2871)",1
32,"(33.7106, -118.2879)",10
33,"(33.7106, -118.2907)",6
34,"(33.7106, -118.2929)",7
35,"(33.7108, -118.2985)",5
36,"(33.7109, -118.2994)",6
37,"(33.7111, -118.3005)",1
38,"(33.7113, -118.2929)",3
39,"(33.7113, -118.2932)",2
40,"(33.7113, -118.3014)",1
41,"(33.7115, -118.2879)",15
42,"(33.7115, -118.2889)",4
43,"(33.7115, -118.2907)",3
44,"(33.7115, -118.2928)",6
45,"(33.7115, -118.2929)",16
46,"(33.7116, -118.2874)",1
47,"(33.7116, -118.2879)",5
48,"(33.7116, -118.2981)",3
49,"(33.7119, -118.2981)",1
50,"(33.7121, -118.3033)",2
51,"(33.7124, -118.2889)",2
52,"(33.7125, -118.2916)",1
53,"(33.7128, -118.3052)",1
54,"(33.713, -118.3023)",4
55,"(33.7132, -118.3028)",1
56,"(33.7132, -118.3061)",1
57,"(33.7133, -118.2973)",1
58,"(33.7134, -118.2879)",7
59,"(33.7134, -118.2898)",1
60,"(33.7135, -118.307)",3
61,"(33.7136, -118.2904)",22
62,"(33.7138, -118.3046)",1
63,"(33.7139, -118.3046)",2
64,"(33.7141, -118.3089)",1
65,"(33.7142, -118.3055)",1
66,"(33.7143, -118.2916)",5
67,"(33.7143, -118.2929)",16
68,"(33.7143, -118.3044)",1
69,"(33.7144, -118.2997)",8
70,"(33.7147, -118.3112)",3
71,"(33.715, -118.3052)",3
72,"(33.7152, -118.2879)",5
73,"(33.7152, -118.2889)",2
74,"(33.7152, -118.2898)",2
75,"(33.7152, -118.2907)",4
76,"(33.7152, -118.2916)",1
77,"(33.7152, -118.2929)",8
78,"(33.7152, -118.3029)",1
79,"(33.7152, -118.3084)",1
80,"(33.7155, -118.3067)",1
81,"(33.7156, -118.3094)",1
82,"(33.7159, -118.2929)",2
83,"(33.7159, -118.3047)",1
84,"(33.7159, -118.3105)",3
85,"(33.7161, -118.2916)",3
86,"(33.7161, -118.2929)",3
87,"(33.7163, -118.3089)",3
88,"(33.7166, -118.3182)",1
89,"(33.7167, -118.2842)",27
90,"(33.7167, -118.3099)",2
91,"(33.7169, -118.2943)",1
92,"(33.717, -118.2879)",12
93,"(33.717, -118.2889)",2
94,"(33.717, -118.2898)",2
95,"(33.717, -118.2907)",1
96,"(33.717, -118.2916)",1
97,"(33.717, -118.2929)",5
98,"(33.717, -118.3055)",1
99,"(33.7171, -118.2986)",2
100,"(33.7175, -118.2826)",2
101,"(33.7176, -118.2831)",1
102,"(33.7176, -118.3039)",4
103,"(33.7177, -118.2937)",3
104,"(33.7177, -118.3074)",1
105,"(33.7179, -118.2841)",3
106,"(33.7179, -118.2907)",4
107,"(33.7179, -118.2929)",5
108,"(33.7179, -118.296)",1
109,"(33.7181, -118.2804)",1
110,"(33.7181, -118.2947)",1
111,"(33.7181, -118.2988)",1
112,"(33.7183, -118.2994)",1
113,"(33.7184, -118.2994)",3
114,"(33.7185, -118.2957)",1
115,"(33.7185, -118.2977)",1
116,"(33.7186, -118.3035)",1
117,"(33.7188, -118.2879)",5
118,"(33.7188, -118.2889)",5
119,"(33.7188, -118.2907)",2
120,"(33.7188, -118.2916)",2
121,"(33.7188, -118.2929)",6
122,"(33.7189, -118.2879)",2
123,"(33.7189, -118.3022)",1
124,"(33.719, -118.2946)",1
125,"(33.719, -118.2992)",1
126,"(33.719, -118.32)",9
127,"(33.7192, -118.2839)",2
128,"(33.7192, -118.3012)",2
129,"(33.7194, -118.3215)",1
130,"(33.7194, -118.3216)",5
131,"(33.7196, -118.2561)",19
132,"(33.7196, -118.3033)",1
133,"(33.7197, -118.2907)",2
134,"(33.7197, -118.2929)",6
135,"(33.7197, -118.2946)",2
136,"(33.7197, -118.325)",1
137,"(33.7198, -118.299)",2
138,"(33.7198, -118.3012)",2
139,"(33.7198, -118.3013)",1
140,"(33.7199, -118.3255)",2
141,"(33.7201, -118.2978)",1
142,"(33.7201, -118.3028)",1
143,"(33.7201, -118.3195)",2
144,"(33.7203, -118.3026)",2
145,"(33.7203, -118.3075)",1
146,"(33.7203, -118.3093)",1
147,"(33.7206, -118.288)",9
148,"(33.7206, -118.2889)",10
149,"(33.7206, -118.2898)",5
150,"(33.7206, -118.2907)",3
151,"(33.7206, -118.2916)",7
152,"(33.7206, -118.2929)",5
153,"(33.7206, -118.2946)",3
154,"(33.7206, -118.3252)",3
155,"(33.7207, -118.2968)",2
156,"(33.7207, -118.299)",11
157,"(33.7207, -118.3013)",1
158,"(33.7207, -118.3108)",14
159,"(33.7208, -118.2946)",1
160,"(33.7208, -118.3056)",3
161,"(33.7209, -118.2946)",2
162,"(33.721, -118.3205)",1
163,"(33.7211, -118.2916)",1
164,"(33.7211, -118.3206)",1
165,"(33.7212, -118.2835)",1
166,"(33.7212, -118.2909)",3
167,"(33.7214, -118.2927)",21
168,"(33.7215, -118.2929)",8
169,"(33.7215, -118.3213)",1
170,"(33.7216, -118.2925)",6
171,"(33.7216, -118.2946)",9
172,"(33.7216, -118.2968)",12
173,"(33.7216, -118.299)",15
174,"(33.7216, -118.3012)",21
175,"(33.7216, -118.3035)",13
176,"(33.7216, -118.3056)",17
177,"(33.7216, -118.3083)",2
178,"(33.7217, -118.3276)",1
179,"(33.7218, -118.2729)",4
180,"(33.7218, -118.288)",4
181,"(33.7219, -118.2911)",1
182,"(33.7219, -118.311)",2
183,"(33.7219, -118.3219)",1
184,"(33.722, -118.309)",1
185,"(33.722, -118.3114)",1
186,"(33.7223, -118.3248)",1
187,"(33.7224, -118.2902)",1
188,"(33.7224, -118.2924)",31
189,"(33.7225, -118.2893)",4
190,"(33.7225, -118.2946)",5
191,"(33.7225, -118.2968)",2
192,"(33.7225, -118.299)",13
193,"(33.7225, -118.3012)",10
194,"(33.7225, -118.3034)",10
195,"(33.7225, -118.3056)",8
196,"(33.7226, -118.3185)",1
197,"(33.7229, -118.288)",3
198,"(33.723, -118.3129)",90
199,"(33.7232, -118.3133)",8
200,"(33.7233, -118.3245)",1
201,"(33.7234, -118.288)",7
202,"(33.7234, -118.2902)",7
203,"(33.7234, -118.2924)",13
204,"(33.7234, -118.2946)",3
205,"(33.7234, -118.2968)",3
206,"(33.7234, -118.299)",14
207,"(33.7234, -118.3012)",9
208,"(33.7234, -118.3034)",4
209,"(33.7234, -118.3056)",1
210,"(33.7237, -118.3126)",1
211,"(33.7237, -118.3202)",2
212,"(33.724, -118.3148)",27
213,"(33.7242, -118.2858)",3
214,"(33.7242, -118.2869)",10
215,"(33.7243, -118.2858)",3
216,"(33.7243, -118.288)",47
217,"(33.7243, -118.2902)",4
218,"(33.7243, -118.2924)",33
219,"(33.7243, -118.2946)",7
220,"(33.7243, -118.2963)",27
221,"(33.7243, -118.299)",5
222,"(33.7243, -118.3012)",2
223,"(33.7243, -118.3034)",3
224,"(33.7243, -118.3056)",2
225,"(33.7244, -118.3124)",1
226,"(33.7244, -118.322)",11
227,"(33.7245, -118.2846)",9
228,"(33.7245, -118.3194)",1
229,"(33.7246, -118.3144)",2
230,"(33.7248, -118.3183)",1
231,"(33.725, -118.3135)",2
232,"(33.7251, -118.2855)",5
233,"(33.7251, -118.2858)",8
234,"(33.7252, -118.288)",8
235,"(33.7252, -118.2902)",7
236,"(33.7252, -118.2924)",19
237,"(33.7252, -118.2946)",6
238,"(33.7252, -118.2968)",2
239,"(33.7252, -118.299)",9
240,"(33.7252, -118.3012)",3
241,"(33.7252, -118.3034)",3
242,"(33.7252, -118.3056)",1
243,"(33.7253, -118.319)",4
244,"(33.7254, -118.3157)",1
245,"(33.7257, -118.2766)",17
246,"(33.7258, -118.2797)",1
247,"(33.726, -118.321)",10
248,"(33.7261, -118.2848)",1
249,"(33.7261, -118.2858)",8
250,"(33.7261, -118.288)",23
251,"(33.7261, -118.2902)",7
252,"(33.7261, -118.2924)",19
253,"(33.7261, -118.2946)",3
254,"(33.7261, -118.2968)",4
255,"(33.7261, -118.299)",9
256,"(33.7261, -118.3012)",3
257,"(33.7261, -118.3034)",6
258,"(33.7261, -118.3056)",2
259,"(33.7261, -118.3078)",1
260,"(33.7261, -118.3082)",1
261,"(33.7261, -118.3093)",2
262,"(33.7262, -118.2779)",1
263,"(33.7262, -118.2781)",18
264,"(33.7262, -118.3215)",7
265,"(33.7264, -118.3162)",2
266,"(33.7265, -118.3205)",1
267,"(33.7266, -118.2739)",5
268,"(33.7267, -118.3127)",1
269,"(33.7268, -118.274)",1
270,"(33.727, -118.2748)",5
271,"(33.727, -118.2841)",2
272,"(33.727, -118.2858)",4
273,"(33.727, -118.288)",32
274,"(33.727, -118.2902)",11
275,"(33.727, -118.2924)",43
276,"(33.727, -118.2946)",7
277,"(33.727, -118.2968)",7
278,"(33.727, -118.299)",15
279,"(33.727, -118.3012)",10
280,"(33.727, -118.3034)",6
281,"(33.727, -118.3056)",9
282,"(33.727, -118.3078)",2
283,"(33.727, -118.3242)",8
284,"(33.7271, -118.3097)",3
285,"(33.7271, -118.3113)",41
286,"(33.7271, -118.3129)",12
287,"(33.7272, -118.2742)",1
288,"(33.7272, -118.3201)",1
289,"(33.7273, -118.3275)",6
290,"(33.7276, -118.3122)",1
291,"(33.7279, -118.2829)",1
292,"(33.7279, -118.2836)",4
293,"(33.7279, -118.2858)",8
294,"(33.7279, -118.288)",18
295,"(33.7279, -118.2902)",13
296,"(33.7279, -118.2924)",22
297,"(33.7279, -118.2946)",10
298,"(33.7279, -118.2968)",6
299,"(33.7279, -118.299)",7
300,"(33.7279, -118.3012)",6
301,"(33.7279, -118.3034)",1
302,"(33.7279, -118.3056)",1
303,"(33.7279, -118.3167)",1
304,"(33.728, -118.3078)",2
305,"(33.728, -118.3097)",2
306,"(33.7282, -118.3108)",1
307,"(33.7285, -118.3237)",2
308,"(33.7287, -118.2814)",5
309,"(33.7288, -118.2813)",2
310,"(33.7288, -118.2814)",1
311,"(33.7288, -118.2836)",3
312,"(33.7288, -118.2858)",10
313,"(33.7288, -118.288)",30
314,"(33.7288, -118.2902)",13
315,"(33.7288, -118.2924)",66
316,"(33.7288, -118.2946)",22
317,"(33.7288, -118.2968)",7
318,"(33.7288, -118.299)",7
319,"(33.7288, -118.3012)",5
320,"(33.7288, -118.3034)",2
321,"(33.7288, -118.312)",5
322,"(33.7289, -118.2846)",32
323,"(33.7289, -118.3056)",3
324,"(33.7289, -118.3144)",1
325,"(33.7291, -118.2383)",9
326,"(33.7293, -118.3145)",1
327,"(33.7293, -118.3162)",4
328,"(33.7294, -118.2798)",8
329,"(33.7294, -118.3185)",2
330,"(33.7297, -118.2805)",1
331,"(33.7297, -118.2814)",3
332,"(33.7297, -118.2836)",4
333,"(33.7297, -118.2857)",4
334,"(33.7297, -118.288)",7
335,"(33.7297, -118.2885)",3
336,"(33.7297, -118.2902)",10
337,"(33.7297, -118.2924)",26
338,"(33.7297, -118.2946)",2
339,"(33.7297, -118.3012)",4
340,"(33.7298, -118.3056)",3
341,"(33.7298, -118.3119)",2
342,"(33.7301, -118.28)",3
343,"(33.7306, -118.2805)",4
344,"(33.7306, -118.2814)",2
345,"(33.7306, -118.2836)",9
346,"(33.7306, -118.2857)",4
347,"(33.7306, -118.2879)",31
348,"(33.7306, -118.2902)",8
349,"(33.7306, -118.2924)",43
350,"(33.7306, -118.2946)",9
351,"(33.7306, -118.299)",6
352,"(33.7306, -118.3012)",3
353,"(33.7307, -118.3034)",3
354,"(33.7307, -118.3097)",4
355,"(33.7307, -118.3119)",2
356,"(33.7311, -118.3097)",3
357,"(33.7315, -118.2805)",2
358,"(33.7315, -118.2814)",12
359,"(33.7315, -118.2836)",10
360,"(33.7315, -118.2857)",7
361,"(33.7315, -118.2879)",29
362,"(33.7315, -118.2902)",4
363,"(33.7315, -118.2924)",42
364,"(33.7315, -118.2946)",11
365,"(33.7315, -118.2968)",1
366,"(33.7315, -118.299)",7
367,"(33.7315, -118.3012)",10
368,"(33.7316, -118.3034)",5
369,"(33.7316, -118.3056)",1
370,"(33.7316, -118.3097)",1
371,"(33.7316, -118.3129)",2
372,"(33.7318, -118.28)",1
373,"(33.732, -118.2957)",1
374,"(33.7321, -118.295)",31
375,"(33.7321, -118.3182)",2
376,"(33.7322, -118.2768)",1
377,"(33.7322, -118.2792)",2
378,"(33.7322, -118.3096)",1
379,"(33.7324, -118.2805)",3
380,"(33.7324, -118.2814)",7
381,"(33.7324, -118.2836)",9
382,"(33.7324, -118.2857)",11
383,"(33.7324, -118.2879)",47
384,"(33.7324, -118.2902)",25
385,"(33.7324, -118.2924)",71
386,"(33.7324, -118.2946)",14
387,"(33.7325, -118.2957)",3
388,"(33.7325, -118.2968)",6
389,"(33.7325, -118.299)",8
390,"(33.7325, -118.3012)",8
391,"(33.7325, -118.3034)",9
392,"(33.7325, -118.3056)",6
393,"(33.7325, -118.3078)",7
394,"(33.7326, -118.305)",13
395,"(33.7329, -118.3088)",3
396,"(33.7329, -118.3136)",9
397,"(33.7333, -118.2805)",3
398,"(33.7333, -118.2814)",6
399,"(33.7333, -118.2836)",8
400,"(33.7333, -118.2857)",12
401,"(33.7333, -118.2879)",16
402,"(33.7333, -118.3119)",1
403,"(33.7333, -118.3129)",1
404,"(33.7333, -118.3137)",1
405,"(33.7334, -118.2902)",7
406,"(33.7334, -118.2924)",28
407,"(33.7334, -118.2946)",6
408,"(33.7334, -118.2968)",5
409,"(33.7334, -118.299)",4
410,"(33.7334, -118.3056)",2
411,"(33.7334, -118.3078)",3
412,"(33.7334, -118.3119)",3
413,"(33.7339, -118.3012)",1
414,"(33.7339, -118.3034)",1
415,"(33.7339, -118.3096)",5
416,"(33.7342, -118.2805)",1
417,"(33.7342, -118.2814)",8
418,"(33.7342, -118.2836)",7
419,"(33.7342, -118.2857)",12
420,"(33.7342, -118.2879)",37
421,"(33.7342, -118.2902)",16
422,"(33.7343, -118.2782)",6
423,"(33.7343, -118.2924)",29
424,"(33.7343, -118.2928)",5
425,"(33.7343, -118.2946)",6
426,"(33.7343, -118.2968)",3
427,"(33.7343, -118.299)",2
428,"(33.7343, -118.3131)",1
429,"(33.7345, -118.3012)",3
430,"(33.7347, -118.2842)",16
431,"(33.7347, -118.2879)",3
432,"(33.7347, -118.299)",2
433,"(33.7351, -118.2804)",1
434,"(33.7351, -118.2814)",5
435,"(33.7351, -118.2835)",13
436,"(33.7351, -118.2857)",9
437,"(33.7352, -118.2879)",36
438,"(33.7352, -118.2901)",17
439,"(33.7352, -118.2902)",2
440,"(33.7352, -118.2923)",36
441,"(33.7352, -118.2924)",4
442,"(33.7352, -118.2946)",5
443,"(33.7352, -118.2968)",2
444,"(33.7352, -118.299)",7
445,"(33.7352, -118.3012)",2
446,"(33.7352, -118.3015)",1
447,"(33.7352, -118.3034)",3
448,"(33.7352, -118.3056)",1
449,"(33.7352, -118.3097)",1
450,"(33.7352, -118.3108)",1
451,"(33.7352, -118.3119)",5
452,"(33.7352, -118.3131)",1
453,"(33.7352, -118.3149)",1
454,"(33.7353, -118.2789)",9
455,"(33.7353, -118.299)",6
456,"(33.7353, -118.3012)",3
457,"(33.7354, -118.3077)",1
458,"(33.7357, -118.2923)",1
459,"(33.7358, -118.3158)",1
460,"(33.736, -118.2814)",9
461,"(33.736, -118.2835)",16
462,"(33.736, -118.2857)",10
463,"(33.7361, -118.2857)",1
464,"(33.7361, -118.2879)",40
465,"(33.7361, -118.2901)",23
466,"(33.7361, -118.2923)",86
467,"(33.7361, -118.2946)",10
468,"(33.7361, -118.295)",7
469,"(33.7361, -118.2968)",11
470,"(33.7361, -118.2973)",3
471,"(33.7361, -118.299)",13
472,"(33.7361, -118.3012)",15
473,"(33.7361, -118.3034)",21
474,"(33.7361, -118.3056)",14
475,"(33.7361, -118.3077)",16
476,"(33.7361, -118.3087)",2
477,"(33.7361, -118.3097)",17
478,"(33.7363, -118.312)",11
479,"(33.7363, -118.315)",1
480,"(33.7363, -118.3166)",11
481,"(33.7365, -118.2923)",12
482,"(33.7365, -118.3108)",2
483,"(33.7365, -118.3173)",2
484,"(33.7367, -118.271)",1
485,"(33.7368, -118.3119)",6
486,"(33.7369, -118.2804)",2
487,"(33.7369, -118.2814)",7
488,"(33.7369, -118.2835)",10
489,"(33.737, -118.2857)",10
490,"(33.737, -118.2879)",27
491,"(33.737, -118.2901)",14
492,"(33.737, -118.2923)",35
493,"(33.737, -118.2945)",5
494,"(33.737, -118.2967)",2
495,"(33.737, -118.299)",12
496,"(33.737, -118.3012)",2
497,"(33.737, -118.3056)",5
498,"(33.737, -118.3077)",2
499,"(33.737, -118.3097)",5
500,"(33.7374, -118.2617)",1
501,"(33.7374, -118.2857)",3
502,"(33.7378, -118.2799)",16
503,"(33.7378, -118.2804)",5
504,"(33.7378, -118.2814)",12
505,"(33.7378, -118.2835)",14
506,"(33.7379, -118.2719)",3
507,"(33.7379, -118.2835)",1
508,"(33.7379, -118.2857)",11
509,"(33.7379, -118.2879)",46
510,"(33.7379, -118.2901)",20
511,"(33.7379, -118.2923)",83
512,"(33.7379, -118.2945)",20
513,"(33.7379, -118.2967)",8
514,"(33.7379, -118.299)",14
515,"(33.7379, -118.3012)",3
516,"(33.7379, -118.3019)",2
517,"(33.7379, -118.3034)",2
518,"(33.7379, -118.3056)",4
519,"(33.7379, -118.3065)",6
520,"(33.7379, -118.3077)",2
521,"(33.7379, -118.3097)",18
522,"(33.7379, -118.3108)",5
523,"(33.7379, -118.3114)",1
524,"(33.7379, -118.3119)",1
525,"(33.7379, -118.3147)",4
526,"(33.7384, -118.3151)",17
527,"(33.7385, -118.317)",1
528,"(33.7387, -118.272)",1
529,"(33.7388, -118.2789)",3
530,"(33.7388, -118.2791)",2
531,"(33.7388, -118.2793)",1
532,"(33.7388, -118.2799)",20
533,"(33.7388, -118.2804)",9
534,"(33.7388, -118.2814)",11
535,"(33.7388, -118.2835)",9
536,"(33.7388, -118.285)",5
537,"(33.7388, -118.2857)",14
538,"(33.7388, -118.2879)",50
539,"(33.7388, -118.2901)",20
540,"(33.7388, -118.2923)",86
541,"(33.7388, -118.2945)",13
542,"(33.7388, -118.2967)",3
543,"(33.7389, -118.3097)",7
544,"(33.7391, -118.269)",3
545,"(33.7392, -118.2814)",2
546,"(33.7392, -118.2835)",2
547,"(33.7392, -118.3188)",2
548,"(33.7393, -118.3176)",2
549,"(33.7396, -118.3136)",1
550,"(33.7397, -118.2835)",11
551,"(33.7397, -118.285)",2
552,"(33.7397, -118.2857)",3
553,"(33.7397, -118.2879)",54
554,"(33.7397, -118.2901)",16
555,"(33.7397, -118.2923)",111
556,"(33.7397, -118.2945)",13
557,"(33.7397, -118.2967)",2
558,"(33.7397, -118.3097)",11
559,"(33.7399, -118.3021)",1
560,"(33.74, -118.313)",2
561,"(33.74, -118.3185)",1
562,"(33.7401, -118.2696)",7
563,"(33.7403, -118.2814)",11
564,"(33.7405, -118.2654)",1
565,"(33.7405, -118.2794)",1
566,"(33.7405, -118.2797)",10
567,"(33.7406, -118.2857)",1
568,"(33.7406, -118.2879)",19
569,"(33.7406, -118.2901)",5
570,"(33.7406, -118.2923)",123
571,"(33.7406, -118.2945)",7
572,"(33.7406, -118.2967)",2
573,"(33.7408, -118.2678)",8
574,"(33.7408, -118.3193)",1
575,"(33.741, -118.2838)",18
576,"(33.7412, -118.2924)",29
577,"(33.7413, -118.2643)",5
578,"(33.7415, -118.266)",2
579,"(33.7415, -118.2796)",4
580,"(33.7415, -118.2804)",3
581,"(33.7415, -118.2813)",2
582,"(33.7415, -118.2835)",2
583,"(33.7415, -118.2857)",8
584,"(33.7415, -118.2879)",27
585,"(33.7415, -118.2901)",8
586,"(33.7415, -118.2923)",53
587,"(33.7415, -118.2945)",3
588,"(33.7415, -118.2967)",1
589,"(33.7415, -118.3014)",1
590,"(33.7415, -118.3021)",2
591,"(33.7415, -118.3034)",1
592,"(33.7416, -118.3086)",1
593,"(33.7419, -118.3142)",3
594,"(33.742, -118.2649)",12
595,"(33.742, -118.3139)",1
596,"(33.7421, -118.3102)",58
597,"(33.7421, -118.311)",6
598,"(33.7423, -118.3196)",4
599,"(33.7424, -118.2796)",1
600,"(33.7424, -118.2804)",3
601,"(33.7424, -118.2813)",5
602,"(33.7424, -118.2835)",6
603,"(33.7424, -118.2857)",10
604,"(33.7424, -118.2879)",24
605,"(33.7424, -118.2901)",5
606,"(33.7424, -118.2923)",69
607,"(33.7424, -118.2945)",17
608,"(33.7424, -118.2967)",4
609,"(33.7424, -118.3025)",1
610,"(33.7425, -118.3065)",2
611,"(33.7425, -118.3087)",1
612,"(33.7428, -118.2444)",9
613,"(33.743, -118.3185)",1
614,"(33.7432, -118.319)",6
615,"(33.7433, -118.2796)",22
616,"(33.7433, -118.2804)",5
617,"(33.7433, -118.2813)",4
618,"(33.7433, -118.2835)",16
619,"(33.7433, -118.2857)",12
620,"(33.7433, -118.2879)",64
621,"(33.7433, -118.2901)",15
622,"(33.7433, -118.2923)",139
623,"(33.7433, -118.2934)",5
624,"(33.7433, -118.2945)",23
625,"(33.7433, -118.2956)",4
626,"(33.7433, -118.2967)",30
627,"(33.7434, -118.2989)",3
628,"(33.7434, -118.3005)",1
629,"(33.7434, -118.3009)",2
630,"(33.7434, -118.302)",6
631,"(33.7434, -118.3043)",18
632,"(33.7434, -118.3065)",13
633,"(33.7434, -118.3087)",8
634,"(33.7434, -118.3097)",33
635,"(33.7434, -118.3098)",31
636,"(33.7434, -118.3151)",2
637,"(33.7437, -118.3108)",2
638,"(33.7438, -118.2659)",3
639,"(33.7439, -118.2601)",14
640,"(33.7439, -118.3137)",2
641,"(33.7441, -118.3004)",2
642,"(33.7441, -118.3016)",1
643,"(33.7441, -118.302)",2
644,"(33.7441, -118.3043)",2
645,"(33.7441, -118.3117)",4
646,"(33.7441, -118.3127)",2
647,"(33.7442, -118.2796)",14
648,"(33.7442, -118.2804)",5
649,"(33.7442, -118.2813)",5
650,"(33.7442, -118.2817)",3
651,"(33.7442, -118.2821)",1
652,"(33.7442, -118.2835)",2
653,"(33.7442, -118.2857)",6
654,"(33.7442, -118.2879)",33
655,"(33.7442, -118.2901)",24
656,"(33.7442, -118.2923)",53
657,"(33.7442, -118.3043)",1
658,"(33.7442, -118.3065)",1
659,"(33.7443, -118.3088)",55
660,"(33.7446, -118.2587)",37
661,"(33.7446, -118.2967)",1
662,"(33.7446, -118.3097)",11
663,"(33.7447, -118.2923)",22
664,"(33.7447, -118.2945)",4
665,"(33.7447, -118.2979)",1
666,"(33.7447, -118.2989)",1
667,"(33.7449, -118.3109)",2
668,"(33.745, -118.2796)",1
669,"(33.7451, -118.2835)",16
670,"(33.7451, -118.2857)",12
671,"(33.7451, -118.2873)",1
672,"(33.7451, -118.2879)",18
673,"(33.7451, -118.2901)",9
674,"(33.7451, -118.2923)",18
675,"(33.7452, -118.302)",2
676,"(33.7452, -118.3042)",1
677,"(33.7452, -118.3043)",2
678,"(33.7454, -118.2923)",1
679,"(33.7455, -118.2923)",3
680,"(33.7456, -118.2923)",14
681,"(33.7456, -118.2934)",5
682,"(33.7456, -118.2935)",1
683,"(33.7456, -118.2945)",8
684,"(33.7456, -118.2967)",3
685,"(33.7456, -118.2989)",4
686,"(33.7457, -118.2612)",2
687,"(33.7457, -118.2989)",1
688,"(33.7457, -118.302)",1
689,"(33.746, -118.2796)",18
690,"(33.746, -118.2804)",2
691,"(33.746, -118.2817)",7
692,"(33.746, -118.2835)",8
693,"(33.746, -118.2857)",12
694,"(33.746, -118.2879)",19
695,"(33.746, -118.2901)",8
696,"(33.746, -118.2917)",1
697,"(33.746, -118.2923)",18
698,"(33.7461, -118.2923)",13
699,"(33.7462, -118.302)",1
700,"(33.7462, -118.3064)",2
701,"(33.7464, -118.3108)",1
702,"(33.7465, -118.2801)",6
703,"(33.7465, -118.2901)",1
704,"(33.7465, -118.3096)",3
705,"(33.7468, -118.2935)",4
706,"(33.7468, -118.2945)",2
707,"(33.7468, -118.2967)",5
708,"(33.7468, -118.2989)",7
709,"(33.7468, -118.3011)",2
710,"(33.7468, -118.3135)",5
711,"(33.7468, -118.3142)",2
712,"(33.7468, -118.3162)",2
713,"(33.7468, -118.318)",2
714,"(33.7469, -118.2817)",5
715,"(33.7469, -118.2835)",5
716,"(33.7469, -118.2857)",4
717,"(33.7469, -118.2868)",1
718,"(33.7469, -118.2879)",17
719,"(33.747, -118.3028)",4
720,"(33.747, -118.3042)",8
721,"(33.747, -118.3064)",2
722,"(33.747, -118.3087)",3
723,"(33.7472, -118.3096)",27
724,"(33.7473, -118.2621)",2
725,"(33.7474, -118.3011)",9
726,"(33.7476, -118.2935)",26
727,"(33.7476, -118.2948)",3
728,"(33.7476, -118.2953)",4
729,"(33.7476, -118.2967)",7
730,"(33.7476, -118.2989)",21
731,"(33.7477, -118.2766)",1
732,"(33.7477, -118.2929)",62
733,"(33.7478, -118.2817)",1
734,"(33.7478, -118.2835)",1
735,"(33.7478, -118.2857)",1
736,"(33.7478, -118.2879)",5
737,"(33.7478, -118.3028)",4
738,"(33.7478, -118.3042)",1
739,"(33.7478, -118.3064)",1
740,"(33.748, -118.2922)",1
741,"(33.7483, -118.2931)",126
742,"(33.7484, -118.2646)",1
743,"(33.7484, -118.2923)",2
744,"(33.7484, -118.2929)",3
745,"(33.7484, -118.2943)",4
746,"(33.7484, -118.2948)",3
747,"(33.7484, -118.2967)",2
748,"(33.7484, -118.3041)",1
749,"(33.7485, -118.2989)",2
750,"(33.7485, -118.3011)",6
751,"(33.7486, -118.2803)",8
752,"(33.7486, -118.2805)",22
753,"(33.7486, -118.3011)",1
754,"(33.7486, -118.3028)",1
755,"(33.7487, -118.3026)",3
756,"(33.7489, -118.2798)",41
757,"(33.749, -118.263)",2
758,"(33.7492, -118.2632)",13
759,"(33.7492, -118.2807)",4
760,"(33.7492, -118.2923)",1
761,"(33.7492, -118.2943)",3
762,"(33.7492, -118.2967)",1
763,"(33.7492, -118.2989)",1
764,"(33.7493, -118.2876)",20
765,"(33.7494, -118.2803)",2
766,"(33.7495, -118.2932)",1
767,"(33.7495, -118.3011)",3
768,"(33.7496, -118.281)",2
769,"(33.7498, -118.2782)",2
770,"(33.7499, -118.2875)",1
771,"(33.75, -118.2885)",4
772,"(33.75, -118.29)",1
773,"(33.75, -118.2923)",1
774,"(33.75, -118.2967)",6
775,"(33.75, -118.2989)",1
776,"(33.7501, -118.2846)",3
777,"(33.7501, -118.3092)",107
778,"(33.7502, -118.3103)",4
779,"(33.7503, -118.2945)",1
780,"(33.7503, -118.3011)",4
781,"(33.7505, -118.2967)",1
782,"(33.7508, -118.2967)",1
783,"(33.7509, -118.2846)",1
784,"(33.7509, -118.2879)",1
785,"(33.7509, -118.2922)",1
786,"(33.7509, -118.2923)",1
787,"(33.751, -118.3011)",1
788,"(33.7511, -118.2872)",9
789,"(33.7511, -118.3091)",7
790,"(33.7515, -118.2504)",2
791,"(33.7515, -118.2507)",15
792,"(33.7515, -118.2824)",11
793,"(33.7516, -118.2967)",1
794,"(33.7517, -118.2931)",1
795,"(33.7521, -118.2507)",14
796,"(33.7522, -118.3089)",63
797,"(33.7529, -118.293)",24
798,"(33.7529, -118.2956)",4
799,"(33.7529, -118.2967)",1
800,"(33.7529, -118.3016)",1
801,"(33.753, -118.293)",1
802,"(33.7532, -118.2513)",11
803,"(33.7537, -118.309)",17
804,"(33.7538, -118.2905)",104
805,"(33.7538, -118.2911)",7
806,"(33.7538, -118.2922)",48
807,"(33.7538, -118.2923)",46
808,"(33.7538, -118.2945)",12
809,"(33.7538, -118.2955)",1
810,"(33.7538, -118.2967)",4
811,"(33.7539, -118.2967)",2
812,"(33.7539, -118.2988)",5
813,"(33.754, -118.3048)",13
814,"(33.7541, -118.2517)",56
815,"(33.7542, -118.301)",1
816,"(33.7542, -118.3071)",1
817,"(33.7544, -118.299)",1
818,"(33.7547, -118.2922)",1
819,"(33.7547, -118.2967)",1
820,"(33.7547, -118.299)",1
821,"(33.7547, -118.3011)",35
822,"(33.7548, -118.2922)",20
823,"(33.755, -118.2491)",1
824,"(33.7551, -118.2544)",1
825,"(33.7551, -118.2956)",1
826,"(33.7551, -118.2991)",2
827,"(33.7552, -118.2922)",1
828,"(33.7552, -118.3038)",10
829,"(33.7553, -118.3056)",8
830,"(33.7555, -118.2967)",3
831,"(33.7556, -118.2922)",13
832,"(33.7558, -118.2992)",5
833,"(33.7559, -118.3047)",1
834,"(33.756, -118.3045)",8
835,"(33.7562, -118.2993)",3
836,"(33.7562, -118.3065)",1
837,"(33.7564, -118.2897)",1
838,"(33.7566, -118.307)",1
839,"(33.7569, -118.2641)",1
840,"(33.7569, -118.2716)",3
841,"(33.7569, -118.3026)",3
842,"(33.7571, -118.2923)",1
843,"(33.7574, -118.2968)",1
844,"(33.7576, -118.1131)",1
845,"(33.7576, -118.3009)",15
846,"(33.7577, -118.2884)",7
847,"(33.7578, -118.2923)",15
848,"(33.7578, -118.301)",1
849,"(33.7579, -118.297)",3
850,"(33.7582, -118.3006)",3
851,"(33.7588, -118.2951)",19
852,"(33.7589, -118.2458)",1
853,"(33.7589, -118.2872)",3
854,"(33.759, -118.2649)",1
855,"(33.7591, -118.3009)",2
856,"(33.7592, -118.2926)",52
857,"(33.7592, -118.2982)",3
858,"(33.7592, -118.3002)",1
859,"(33.7596, -118.2658)",2
860,"(33.7596, -118.2961)",1
861,"(33.7597, -118.2952)",6
862,"(33.7601, -118.2928)",6
863,"(33.7603, -118.2422)",2
864,"(33.7604, -118.2954)",1
865,"(33.7605, -118.3054)",1
866,"(33.7611, -118.2955)",2
867,"(33.7613, -118.2819)",67
868,"(33.7614, -118.2989)",1
869,"(33.7615, -118.3055)",2
870,"(33.7617, -118.2974)",1
871,"(33.7617, -118.3037)",3
872,"(33.7617, -118.306)",1
873,"(33.7619, -118.3064)",1
874,"(33.7622, -118.3019)",2
875,"(33.7624, -118.3011)",2
876,"(33.7626, -118.1481)",1
877,"(33.7626, -118.2687)",23
878,"(33.7626, -118.3083)",6
879,"(33.7627, -118.309)",2
880,"(33.7628, -118.2993)",3
881,"(33.7631, -118.3116)",47
882,"(33.7632, -118.3116)",1
883,"(33.7633, -118.3039)",10
884,"(33.7634, -118.3023)",2
885,"(33.7635, -118.2976)",5
886,"(33.7636, -118.2961)",22
887,"(33.7636, -118.2994)",11
888,"(33.7638, -118.2939)",2
889,"(33.7638, -118.2948)",1
890,"(33.7639, -118.2934)",113
891,"(33.7642, -118.3081)",4
892,"(33.7649, -118.3011)",1
893,"(33.765, -118.2995)",1
894,"(33.7655, -118.3109)",1
895,"(33.7656, -118.2641)",1
896,"(33.7656, -118.3072)",2
897,"(33.7657, -118.2995)",2
898,"(33.7657, -118.3004)",1
899,"(33.7657, -118.3108)",6
900,"(33.7658, -118.2468)",3
901,"(33.7659, -118.2491)",1
902,"(33.7663, -118.2591)",2
903,"(33.7663, -118.3106)",1
904,"(33.7664, -118.2561)",2
905,"(33.7666, -118.2632)",3
906,"(33.7666, -118.264)",3
907,"(33.7666, -118.2641)",1
908,"(33.7668, -118.2608)",2
909,"(33.7669, -118.3105)",7
910,"(33.7674, -118.2404)",7
911,"(33.7677, -118.2813)",2
912,"(33.768, -118.3102)",1
913,"(33.7681, -118.1481)",4
914,"(33.7681, -118.1937)",4
915,"(33.7691, -118.2642)",1
916,"(33.7694, -118.2955)",57
917,"(33.7697, -118.2641)",2
918,"(33.7698, -118.2629)",1
919,"(33.7699, -118.2613)",2
920,"(33.7703, -118.2787)",19
921,"(33.7703, -118.3095)",3
922,"(33.7705, -118.1937)",2
923,"(33.7706, -118.2748)",3
924,"(33.7707, -118.2407)",1
925,"(33.7707, -118.2734)",1
926,"(33.7709, -118.2786)",2
927,"(33.771, -118.2663)",1
928,"(33.771, -118.2669)",4
929,"(33.7711, -118.2644)",2
930,"(33.7711, -118.2657)",2
931,"(33.7712, -118.263)",1
932,"(33.7713, -118.2618)",3
933,"(33.7713, -118.2624)",3
934,"(33.7714, -118.2605)",6
935,"(33.7715, -118.2578)",8
936,"(33.7717, -118.1937)",2
937,"(33.7717, -118.2557)",1
938,"(33.7718, -118.2786)",1
939,"(33.7719, -118.2951)",1
940,"(33.772, -118.2762)",5
941,"(33.7721, -118.2736)",5
942,"(33.7721, -118.2749)",3
943,"(33.7722, -118.2723)",5
944,"(33.7723, -118.2697)",5
945,"(33.7723, -118.271)",9
946,"(33.7724, -118.2677)",1
947,"(33.7724, -118.2684)",1
948,"(33.7724, -118.269)",2
949,"(33.7724, -118.2762)",1
950,"(33.7725, -118.2658)",4
951,"(33.7725, -118.2664)",1
952,"(33.7725, -118.2671)",2
953,"(33.7726, -118.1481)",1
954,"(33.7726, -118.2638)",2
955,"(33.7726, -118.2645)",5
956,"(33.7727, -118.2619)",12
957,"(33.7727, -118.2625)",3
958,"(33.7727, -118.2632)",3
959,"(33.7728, -118.2606)",11
960,"(33.7729, -118.2593)",3
961,"(33.773, -118.1195)",18
962,"(33.773, -118.2567)",1
963,"(33.7731, -118.2554)",1
964,"(33.7731, -118.2749)",1
965,"(33.7732, -118.2541)",3
966,"(33.7733, -118.2528)",2
967,"(33.7733, -118.2776)",1
968,"(33.7733, -118.2786)",5
969,"(33.7733, -118.2788)",11
970,"(33.7734, -118.2763)",5
971,"(33.7735, -118.1481)",1
972,"(33.7735, -118.2737)",6
973,"(33.7735, -118.2749)",3
974,"(33.7736, -118.2724)",6
975,"(33.7737, -118.2711)",4
976,"(33.7737, -118.2712)",1
977,"(33.7738, -118.2685)",2
978,"(33.7738, -118.2698)",2
979,"(33.7738, -118.2776)",1
980,"(33.7739, -118.2672)",2
981,"(33.7739, -118.2678)",149
982,"(33.774, -118.241)",13
983,"(33.774, -118.2659)",2
984,"(33.774, -118.266)",1
985,"(33.7741, -118.1824)",1
986,"(33.7741, -118.2633)",7
987,"(33.7741, -118.2646)",1
988,"(33.7742, -118.262)",9
989,"(33.7742, -118.2626)",3
990,"(33.7743, -118.2594)",2
991,"(33.7743, -118.2607)",6
992,"(33.7744, -118.2581)",2
993,"(33.7744, -118.2764)",1
994,"(33.7745, -118.2308)",1
995,"(33.7745, -118.2411)",6
996,"(33.7745, -118.2568)",1
997,"(33.7746, -118.2265)",1
998,"(33.7746, -118.2542)",4
999,"(33.7747, -118.2528)",1
1000,"(33.7747, -118.2529)",1
1001,"(33.7747, -118.2788)",5
1002,"(33.7748, -118.2777)",1
1003,"(33.7748, -118.2783)",1
1004,"(33.7748, -118.2784)",1
1005,"(33.7749, -118.2738)",1
1006,"(33.7749, -118.275)",1
1007,"(33.7749, -118.2764)",42
1008,"(33.775, -118.2738)",6
1009,"(33.775, -118.2959)",2
1010,"(33.7751, -118.2712)",1
1011,"(33.7751, -118.2725)",2
1012,"(33.7752, -118.2699)",4
1013,"(33.7753, -118.1481)",1
1014,"(33.7753, -118.2456)",101
1015,"(33.7753, -118.2686)",7
1016,"(33.7754, -118.266)",1
1017,"(33.7754, -118.2673)",5
1018,"(33.7755, -118.2647)",2
1019,"(33.7755, -118.2792)",2
1020,"(33.7755, -118.2803)",1
1021,"(33.7755, -118.2959)",3
1022,"(33.7756, -118.2621)",20
1023,"(33.7756, -118.2634)",2
1024,"(33.7756, -118.2635)",3
1025,"(33.7757, -118.2608)",6
1026,"(33.7757, -118.2609)",1
1027,"(33.7757, -118.2739)",5
1028,"(33.7758, -118.2582)",2
1029,"(33.7759, -118.2494)",3
1030,"(33.776, -118.2543)",6
1031,"(33.776, -118.2556)",1
1032,"(33.776, -118.2794)",1
1033,"(33.7762, -118.2778)",3
1034,"(33.7763, -118.249)",5
1035,"(33.7763, -118.2765)",3
1036,"(33.7764, -118.275)",2
1037,"(33.7764, -118.2751)",1
1038,"(33.7764, -118.2752)",1
1039,"(33.7764, -118.2759)",1
1040,"(33.7764, -118.2804)",1
1041,"(33.7765, -118.2726)",8
1042,"(33.7765, -118.2739)",5
1043,"(33.7765, -118.274)",2
1044,"(33.7765, -118.2795)",1
1045,"(33.7766, -118.1844)",1
1046,"(33.7766, -118.2713)",4
1047,"(33.7767, -118.2413)",1
1048,"(33.7767, -118.27)",8
1049,"(33.7768, -118.2661)",1
1050,"(33.7768, -118.2674)",10
1051,"(33.7769, -118.2648)",6
1052,"(33.7769, -118.2662)",1
1053,"(33.777, -118.2505)",1
1054,"(33.777, -118.2635)",6
1055,"(33.777, -118.2713)",1
1056,"(33.777, -118.2727)",2
1057,"(33.777, -118.2766)",1
1058,"(33.777, -118.2779)",2
1059,"(33.7771, -118.1481)",2
1060,"(33.7771, -118.2616)",2
1061,"(33.7771, -118.2622)",20
1062,"(33.7771, -118.2629)",1
1063,"(33.7771, -118.2753)",2
1064,"(33.7772, -118.2596)",2
1065,"(33.7772, -118.2609)",4
1066,"(33.7772, -118.274)",3
1067,"(33.7772, -118.2745)",1
1068,"(33.7773, -118.2583)",3
1069,"(33.7775, -118.2544)",1
1070,"(33.7776, -118.253)",3
1071,"(33.7777, -118.2505)",1
1072,"(33.7777, -118.2779)",1
1073,"(33.7777, -118.278)",2
1074,"(33.7777, -118.2783)",1
1075,"(33.7778, -118.1824)",1
1076,"(33.7778, -118.2492)",1
1077,"(33.7778, -118.2753)",5
1078,"(33.7778, -118.2766)",6
1079,"(33.7779, -118.274)",4
1080,"(33.7779, -118.2741)",4
1081,"(33.778, -118.2724)",1
1082,"(33.778, -118.2727)",9
1083,"(33.778, -118.2728)",3
1084,"(33.7781, -118.1481)",2
1085,"(33.7781, -118.2701)",5
1086,"(33.7781, -118.2714)",7
1087,"(33.7781, -118.2715)",2
1088,"(33.7781, -118.2808)",3
1089,"(33.7782, -118.2682)",1
1090,"(33.7782, -118.2688)",1
1091,"(33.7782, -118.2695)",1
1092,"(33.7782, -118.2794)",1
1093,"(33.7783, -118.2662)",7
1094,"(33.7783, -118.2669)",2
1095,"(33.7783, -118.2675)",9
1096,"(33.7784, -118.2643)",2
1097,"(33.7784, -118.2649)",11
1098,"(33.7784, -118.265)",4
1099,"(33.7785, -118.2623)",12
1100,"(33.7785, -118.263)",2
1101,"(33.7785, -118.2636)",5
1102,"(33.7786, -118.261)",6
1103,"(33.7786, -118.2702)",4
1104,"(33.7786, -118.2795)",3
1105,"(33.7787, -118.2584)",4
1106,"(33.7787, -118.2585)",1
1107,"(33.7787, -118.2597)",3
1108,"(33.7787, -118.2866)",1
1109,"(33.7788, -118.2571)",1
1110,"(33.7788, -118.2846)",3
1111,"(33.7789, -118.2809)",4
1112,"(33.7789, -118.2819)",13
1113,"(33.7789, -118.304)",1
1114,"(33.779, -118.2532)",1
1115,"(33.779, -118.2545)",2
1116,"(33.779, -118.2795)",7
1117,"(33.779, -118.2802)",1
1118,"(33.779, -118.2809)",64
1119,"(33.779, -118.3095)",10
1120,"(33.7791, -118.2782)",8
1121,"(33.7791, -118.2795)",39
1122,"(33.7792, -118.2493)",2
1123,"(33.7792, -118.2506)",9
1124,"(33.7792, -118.2768)",28
1125,"(33.7792, -118.2774)",1
1126,"(33.7793, -118.248)",6
1127,"(33.7793, -118.2748)",14
1128,"(33.7793, -118.2755)",20
1129,"(33.7794, -118.2467)",1
1130,"(33.7794, -118.2728)",12
1131,"(33.7794, -118.2729)",12
1132,"(33.7794, -118.2742)",58
1133,"(33.7794, -118.2809)",1
1134,"(33.7794, -118.2819)",7
1135,"(33.7794, -118.3078)",8
1136,"(33.7795, -118.2711)",23
1137,"(33.7795, -118.2714)",1
1138,"(33.7795, -118.2715)",18
1139,"(33.7795, -118.2723)",13
1140,"(33.7796, -118.2689)",12
1141,"(33.7796, -118.2699)",30
1142,"(33.7796, -118.2702)",2
1143,"(33.7796, -118.2781)",1
1144,"(33.7797, -118.2274)",1
1145,"(33.7797, -118.2675)",20
1146,"(33.7797, -118.2676)",22
1147,"(33.7797, -118.2687)",25
1148,"(33.7797, -118.2688)",5
1149,"(33.7797, -118.2768)",1
1150,"(33.7798, -118.2656)",17
1151,"(33.7798, -118.2663)",38
1152,"(33.7798, -118.2665)",26
1153,"(33.7799, -118.2637)",40
1154,"(33.7799, -118.2644)",3
1155,"(33.7799, -118.2648)",40
1156,"(33.7799, -118.2649)",13
1157,"(33.7799, -118.265)",12
1158,"(33.7799, -118.2796)",10
1159,"(33.7799, -118.281)",17
1160,"(33.7799, -118.3036)",3
1161,"(33.7799, -118.3045)",2
1162,"(33.78, -118.2618)",29
1163,"(33.78, -118.2619)",8
1164,"(33.78, -118.2624)",48
1165,"(33.78, -118.2631)",38
1166,"(33.78, -118.2711)",2
1167,"(33.78, -118.3027)",5
1168,"(33.78, -118.3079)",1
1169,"(33.7801, -118.2598)",4
1170,"(33.7801, -118.2608)",33
1171,"(33.7801, -118.2609)",2
1172,"(33.7801, -118.2611)",5
1173,"(33.7801, -118.3016)",4
1174,"(33.7802, -118.258)",2
1175,"(33.7802, -118.2585)",2
1176,"(33.7802, -118.2593)",23
1177,"(33.7803, -118.2559)",9
1178,"(33.7803, -118.2572)",9
1179,"(33.7803, -118.2573)",16
1180,"(33.7804, -118.255)",27
1181,"(33.7805, -118.2525)",19
1182,"(33.7805, -118.2527)",3
1183,"(33.7805, -118.2533)",17
1184,"(33.7806, -118.2503)",25
1185,"(33.7806, -118.2504)",1
1186,"(33.7806, -118.2507)",5
1187,"(33.7806, -118.2514)",21
1188,"(33.7806, -118.2515)",1
1189,"(33.7806, -118.252)",2
1190,"(33.7806, -118.2769)",3
1191,"(33.7806, -118.2774)",1
1192,"(33.7806, -118.2781)",2
1193,"(33.7806, -118.3083)",1
1194,"(33.7807, -118.2494)",6
1195,"(33.7807, -118.2749)",1
1196,"(33.7807, -118.2756)",4
1197,"(33.7807, -118.2757)",1
1198,"(33.7808, -118.1486)",1
1199,"(33.7808, -118.2468)",4
1200,"(33.7808, -118.2475)",16
1201,"(33.7808, -118.2476)",3
1202,"(33.7808, -118.2481)",7
1203,"(33.7808, -118.2484)",32
1204,"(33.7808, -118.2666)",8
1205,"(33.7808, -118.273)",3
1206,"(33.7808, -118.2743)",10
1207,"(33.7808, -118.3098)",2
1208,"(33.7809, -118.2446)",19
1209,"(33.7809, -118.2452)",71
1210,"(33.7809, -118.2455)",1
1211,"(33.7809, -118.246)",22
1212,"(33.7809, -118.2649)",4
1213,"(33.7809, -118.2712)",4
1214,"(33.7809, -118.2718)",2
1215,"(33.7809, -118.2724)",2
1216,"(33.7809, -118.2725)",1
1217,"(33.781, -118.2436)",1
1218,"(33.781, -118.2437)",3
1219,"(33.781, -118.27)",7
1220,"(33.781, -118.2956)",1
1221,"(33.781, -118.2983)",26
1222,"(33.7811, -118.2428)",8
1223,"(33.7811, -118.2437)",3
1224,"(33.7811, -118.2688)",3
1225,"(33.7811, -118.2689)",2
1226,"(33.7812, -118.2408)",15
1227,"(33.7812, -118.2417)",35
1228,"(33.7812, -118.2625)",16
1229,"(33.7812, -118.2638)",6
1230,"(33.7812, -118.264)",3
1231,"(33.7813, -118.2609)",5
1232,"(33.7813, -118.2619)",6
1233,"(33.7814, -118.2588)",1
1234,"(33.7814, -118.2594)",1
1235,"(33.7814, -118.2602)",2
1236,"(33.7815, -118.265)",1
1237,"(33.7817, -118.223)",1
1238,"(33.7817, -118.2334)",12
1239,"(33.7817, -118.2344)",6
1240,"(33.7817, -118.2574)",1
1241,"(33.7817, -118.2667)",4
1242,"(33.7817, -118.2976)",50
1243,"(33.7817, -118.3041)",20
1244,"(33.7818, -118.2324)",8
1245,"(33.7818, -118.2551)",1
1246,"(33.7818, -118.265)",2
1247,"(33.7819, -118.2314)",11
1248,"(33.782, -118.2294)",5
1249,"(33.782, -118.2304)",11
1250,"(33.782, -118.2801)",1
1251,"(33.7821, -118.2283)",12
1252,"(33.7821, -118.2446)",9
1253,"(33.7821, -118.2504)",1
1254,"(33.7821, -118.277)",2
1255,"(33.7821, -118.278)",3
1256,"(33.7821, -118.2976)",84
1257,"(33.7821, -118.302)",1
1258,"(33.7822, -118.2409)",1
1259,"(33.7822, -118.2418)",7
1260,"(33.7822, -118.2429)",1
1261,"(33.7822, -118.2437)",1
1262,"(33.7822, -118.2485)",7
1263,"(33.7822, -118.2495)",1
1264,"(33.7822, -118.2751)",3
1265,"(33.7822, -118.2757)",10
1266,"(33.7823, -118.2418)",1
1267,"(33.7823, -118.2419)",2
1268,"(33.7823, -118.2469)",1
1269,"(33.7823, -118.2476)",5
1270,"(33.7823, -118.2731)",14
1271,"(33.7823, -118.2744)",40
1272,"(33.7823, -118.2746)",5
1273,"(33.7824, -118.2379)",3
1274,"(33.7824, -118.2409)",1
1275,"(33.7824, -118.2462)",2
1276,"(33.7824, -118.2712)",4
1277,"(33.7824, -118.2713)",1
1278,"(33.7824, -118.2719)",4
1279,"(33.7824, -118.2725)",4
1280,"(33.7825, -118.2399)",2
1281,"(33.7825, -118.2701)",10
1282,"(33.7825, -118.2707)",1
1283,"(33.7826, -118.2678)",7
1284,"(33.7826, -118.2684)",1
1285,"(33.7826, -118.2686)",1
1286,"(33.7826, -118.2689)",3
1287,"(33.7826, -118.2691)",1
1288,"(33.7826, -118.2692)",4
1289,"(33.7827, -118.22)",2
1290,"(33.7827, -118.2223)",1
1291,"(33.7827, -118.2345)",1
1292,"(33.7827, -118.2662)",4
1293,"(33.7827, -118.2667)",7
1294,"(33.7827, -118.2673)",8
1295,"(33.7827, -118.2675)",4
1296,"(33.7827, -118.2976)",1
1297,"(33.7828, -118.264)",15
1298,"(33.7828, -118.2645)",3
1299,"(33.7828, -118.2651)",10
1300,"(33.7828, -118.2652)",2
1301,"(33.7828, -118.278)",1
1302,"(33.7829, -118.262)",16
1303,"(33.7829, -118.2627)",40
1304,"(33.7829, -118.2633)",3
1305,"(33.783, -118.2325)",3
1306,"(33.783, -118.2572)",5
1307,"(33.783, -118.2573)",1
1308,"(33.783, -118.2575)",5
1309,"(33.783, -118.2603)",4
1310,"(33.783, -118.261)",6
1311,"(33.783, -118.2612)",3
1312,"(33.783, -118.2618)",10
1313,"(33.7831, -118.2552)",8
1314,"(33.7831, -118.2553)",4
1315,"(33.7831, -118.2562)",4
1316,"(33.7831, -118.2596)",3
1317,"(33.7832, -118.2581)",7
1318,"(33.7832, -118.278)",1
1319,"(33.7832, -118.2803)",9
1320,"(33.7832, -118.2805)",4
1321,"(33.7832, -118.2808)",3
1322,"(33.7833, -118.2527)",2
1323,"(33.7834, -118.2516)",4
1324,"(33.7834, -118.2814)",1
1325,"(33.7835, -118.2256)",1
1326,"(33.7835, -118.2438)",2
1327,"(33.7835, -118.2505)",5
1328,"(33.7835, -118.3)",35
1329,"(33.7836, -118.2223)",2
1330,"(33.7836, -118.2242)",1
1331,"(33.7836, -118.2479)",1
1332,"(33.7836, -118.2486)",3
1333,"(33.7836, -118.2496)",2
1334,"(33.7837, -118.241)",3
1335,"(33.7837, -118.242)",1
1336,"(33.7837, -118.2476)",5
1337,"(33.7837, -118.2477)",1
1338,"(33.7837, -118.302)",4
1339,"(33.7837, -118.3036)",2
1340,"(33.7837, -118.304)",1
1341,"(33.7837, -118.305)",1
1342,"(33.7837, -118.306)",1
1343,"(33.7837, -118.3099)",1
1344,"(33.7838, -118.24)",2
1345,"(33.7838, -118.2449)",4
1346,"(33.7838, -118.2463)",5
1347,"(33.7839, -118.2381)",2
1348,"(33.7839, -118.2382)",1
1349,"(33.7839, -118.2391)",1
1350,"(33.784, -118.2371)",1
1351,"(33.784, -118.301)",1
1352,"(33.7841, -118.2553)",3
1353,"(33.7842, -118.2528)",3
1354,"(33.7842, -118.254)",2
1355,"(33.7842, -118.2779)",4
1356,"(33.7842, -118.2805)",5
1357,"(33.7843, -118.2752)",1
1358,"(33.7843, -118.2759)",9
1359,"(33.7843, -118.2765)",2
1360,"(33.7844, -118.2733)",9
1361,"(33.7844, -118.2746)",18
1362,"(33.7844, -118.2999)",2
1363,"(33.7845, -118.2714)",7
1364,"(33.7845, -118.272)",8
1365,"(33.7845, -118.2975)",2
1366,"(33.7845, -118.302)",22
1367,"(33.7846, -118.2652)",6
1368,"(33.7846, -118.2692)",6
1369,"(33.7846, -118.2703)",2
1370,"(33.7847, -118.2431)",1
1371,"(33.7847, -118.2449)",1
1372,"(33.7847, -118.2583)",1
1373,"(33.7847, -118.2635)",4
1374,"(33.7847, -118.2641)",5
1375,"(33.7847, -118.2675)",3
1376,"(33.7847, -118.2686)",2
1377,"(33.7848, -118.2421)",4
1378,"(33.7848, -118.262)",2
1379,"(33.7848, -118.2628)",24
1380,"(33.7848, -118.2664)",2
1381,"(33.7849, -118.2286)",1
1382,"(33.7849, -118.2597)",3
1383,"(33.7849, -118.2599)",1
1384,"(33.7849, -118.2604)",4
1385,"(33.7849, -118.2612)",7
1386,"(33.7849, -118.2779)",4
1387,"(33.7849, -118.303)",9
1388,"(33.785, -118.2392)",1
1389,"(33.785, -118.2564)",3
1390,"(33.785, -118.2584)",1
1391,"(33.785, -118.259)",2
1392,"(33.7851, -118.2382)",1
1393,"(33.7851, -118.2541)",2
1394,"(33.7851, -118.2553)",2
1395,"(33.7851, -118.2806)",1
1396,"(33.7851, -118.2975)",32
1397,"(33.7852, -118.2361)",1
1398,"(33.7852, -118.2477)",2
1399,"(33.7852, -118.252)",3
1400,"(33.7852, -118.253)",1
1401,"(33.7852, -118.2536)",2
1402,"(33.7852, -118.3041)",1
1403,"(33.7852, -118.3049)",3
1404,"(33.7852, -118.3059)",1
1405,"(33.7852, -118.3079)",1
1406,"(33.7853, -118.2464)",4
1407,"(33.7853, -118.2506)",3
1408,"(33.7853, -118.2513)",2
1409,"(33.7854, -118.1937)",1
1410,"(33.7854, -118.245)",2
1411,"(33.7854, -118.2477)",1
1412,"(33.7854, -118.2479)",1
1413,"(33.7854, -118.2484)",2
1414,"(33.7854, -118.2495)",6
1415,"(33.7855, -118.2435)",3
1416,"(33.7855, -118.3043)",6
1417,"(33.7856, -118.2155)",1
1418,"(33.7857, -118.2424)",5
1419,"(33.7857, -118.2426)",2
1420,"(33.7857, -118.2429)",6
1421,"(33.7857, -118.2574)",2
1422,"(33.7858, -118.2999)",1
1423,"(33.7859, -118.2404)",1
1424,"(33.7859, -118.2428)",1
1425,"(33.786, -118.2779)",3
1426,"(33.786, -118.2808)",2
1427,"(33.786, -118.2811)",6
1428,"(33.786, -118.2816)",25
1429,"(33.786, -118.2858)",2
1430,"(33.786, -118.302)",6
1431,"(33.786, -118.3032)",1
1432,"(33.786, -118.3043)",8
1433,"(33.786, -118.3056)",3
1434,"(33.786, -118.3076)",5
1435,"(33.786, -118.3085)",3
1436,"(33.786, -118.309)",1
1437,"(33.7861, -118.276)",3
1438,"(33.7861, -118.2767)",1
1439,"(33.7862, -118.2747)",12
1440,"(33.7862, -118.2754)",10
1441,"(33.7862, -118.2908)",60
1442,"(33.7863, -118.245)",5
1443,"(33.7863, -118.2999)",1
1444,"(33.7864, -118.2507)",2
1445,"(33.7864, -118.2514)",3
1446,"(33.7864, -118.2747)",12
1447,"(33.7864, -118.2748)",4
1448,"(33.7865, -118.2426)",1
1449,"(33.7865, -118.2495)",2
1450,"(33.7865, -118.2726)",1
1451,"(33.7865, -118.2734)",5
1452,"(33.7865, -118.2737)",5
1453,"(33.7865, -118.2738)",2
1454,"(33.7866, -118.2426)",8
1455,"(33.7866, -118.2478)",3
1456,"(33.7866, -118.2495)",1
1457,"(33.7866, -118.2654)",6
1458,"(33.7866, -118.2715)",8
1459,"(33.7866, -118.2717)",11
1460,"(33.7866, -118.2722)",2
1461,"(33.7866, -118.3044)",18
1462,"(33.7867, -118.2404)",1
1463,"(33.7867, -118.2471)",1
1464,"(33.7867, -118.2555)",1
1465,"(33.7867, -118.263)",12
1466,"(33.7867, -118.2636)",8
1467,"(33.7867, -118.2643)",7
1468,"(33.7867, -118.2694)",4
1469,"(33.7867, -118.2704)",3
1470,"(33.7868, -118.2451)",3
1471,"(33.7868, -118.2542)",1
1472,"(33.7868, -118.2613)",3
1473,"(33.7868, -118.2614)",1
1474,"(33.7868, -118.2622)",6
1475,"(33.7868, -118.2658)",22
1476,"(33.7868, -118.2676)",6
1477,"(33.7868, -118.2687)",6
1478,"(33.7868, -118.3018)",6
1479,"(33.7869, -118.2592)",1
1480,"(33.7869, -118.2599)",5
1481,"(33.7869, -118.2606)",6
1482,"(33.7869, -118.2654)",2
1483,"(33.7869, -118.2665)",5
1484,"(33.7869, -118.2778)",4
1485,"(33.7869, -118.2809)",4
1486,"(33.7869, -118.3027)",5
1487,"(33.7869, -118.3043)",6
1488,"(33.7869, -118.3076)",1
1489,"(33.7869, -118.3079)",5
1490,"(33.7869, -118.3087)",2
1491,"(33.787, -118.2571)",4
1492,"(33.787, -118.2575)",1
1493,"(33.787, -118.2578)",3
1494,"(33.787, -118.2654)",1
1495,"(33.7871, -118.2555)",11
1496,"(33.7871, -118.2748)",6
1497,"(33.7871, -118.3078)",27
1498,"(33.7872, -118.1937)",1
1499,"(33.7872, -118.2451)",3
1500,"(33.7872, -118.2537)",5
1501,"(33.7872, -118.2543)",1
1502,"(33.7872, -118.2548)",1
1503,"(33.7873, -118.2428)",1
1504,"(33.7873, -118.2451)",1
1505,"(33.7873, -118.253)",2
1506,"(33.7873, -118.2582)",29
1507,"(33.7874, -118.2507)",11
1508,"(33.7875, -118.2479)",29
1509,"(33.7875, -118.2488)",2
1510,"(33.7875, -118.2507)",6
1511,"(33.7875, -118.3043)",3
1512,"(33.7875, -118.3077)",9
1513,"(33.7875, -118.3078)",2
1514,"(33.7876, -118.2465)",1
1515,"(33.7876, -118.2471)",8
1516,"(33.7876, -118.2975)",3
1517,"(33.7876, -118.3087)",1
1518,"(33.7877, -118.2452)",2
1519,"(33.7877, -118.2778)",8
1520,"(33.7878, -118.281)",4
1521,"(33.7879, -118.2749)",8
1522,"(33.7882, -118.2452)",1
1523,"(33.7882, -118.2999)",2
1524,"(33.7882, -118.3012)",4
1525,"(33.7882, -118.3027)",1
1526,"(33.7882, -118.3043)",8
1527,"(33.7882, -118.3076)",15
1528,"(33.7883, -118.2426)",2
1529,"(33.7883, -118.2508)",7
1530,"(33.7884, -118.2479)",1
1531,"(33.7885, -118.2464)",1
1532,"(33.7885, -118.2749)",6
1533,"(33.7886, -118.2453)",1
1534,"(33.7886, -118.2458)",1
1535,"(33.7886, -118.2728)",5
1536,"(33.7886, -118.2738)",11
1537,"(33.7886, -118.2749)",2
1538,"(33.7886, -118.2778)",1
1539,"(33.7886, -118.2807)",2
1540,"(33.7886, -118.2808)",7
1541,"(33.7887, -118.2418)",7
1542,"(33.7887, -118.2655)",6
1543,"(33.7887, -118.2657)",1
1544,"(33.7887, -118.2717)",3
1545,"(33.7887, -118.2764)",1
1546,"(33.7888, -118.2388)",1
1547,"(33.7888, -118.2403)",1
1548,"(33.7888, -118.2631)",24
1549,"(33.7888, -118.2638)",3
1550,"(33.7888, -118.2644)",13
1551,"(33.7888, -118.2695)",9
1552,"(33.7888, -118.2697)",1
1553,"(33.7888, -118.2706)",1
1554,"(33.7888, -118.2708)",1
1555,"(33.7888, -118.2749)",7
1556,"(33.7889, -118.2615)",8
1557,"(33.7889, -118.2678)",4
1558,"(33.7889, -118.2688)",2
1559,"(33.7889, -118.3076)",1
1560,"(33.789, -118.2461)",2
1561,"(33.789, -118.26)",3
1562,"(33.789, -118.2608)",3
1563,"(33.789, -118.2668)",3
1564,"(33.7891, -118.2579)",1
1565,"(33.7891, -118.2586)",2
1566,"(33.7891, -118.2593)",3
1567,"(33.7892, -118.2509)",8
1568,"(33.7892, -118.256)",9
1569,"(33.7892, -118.2567)",1
1570,"(33.7892, -118.2573)",1
1571,"(33.7893, -118.2453)",1
1572,"(33.7893, -118.248)",4
1573,"(33.7893, -118.2544)",2
1574,"(33.7893, -118.255)",1
1575,"(33.7894, -118.2936)",1
1576,"(33.7895, -118.2777)",3
1577,"(33.7895, -118.2807)",11
1578,"(33.7895, -118.2811)",6
1579,"(33.7895, -118.2999)",45
1580,"(33.7895, -118.3012)",59
1581,"(33.7895, -118.3027)",28
1582,"(33.7895, -118.3043)",86
1583,"(33.7895, -118.3076)",170
1584,"(33.7896, -118.2415)",4
1585,"(33.7896, -118.275)",7
1586,"(33.7896, -118.2975)",39
1587,"(33.7896, -118.299)",1
1588,"(33.7897, -118.2388)",1
1589,"(33.7897, -118.2615)",5
1590,"(33.7897, -118.2787)",36
1591,"(33.7899, -118.2155)",1
1592,"(33.7899, -118.2975)",145
1593,"(33.79, -118.251)",4
1594,"(33.79, -118.2632)",5
1595,"(33.7901, -118.2453)",2
1596,"(33.7901, -118.2493)",3
1597,"(33.7901, -118.2616)",2
1598,"(33.7903, -118.2273)",1
1599,"(33.7903, -118.2446)",2
1600,"(33.7903, -118.2453)",1
1601,"(33.7903, -118.248)",1
1602,"(33.7904, -118.275)",31
1603,"(33.7904, -118.2764)",1
1604,"(33.7904, -118.2777)",27
1605,"(33.7905, -118.2411)",2
1606,"(33.7905, -118.2417)",2
1607,"(33.7905, -118.2493)",1
1608,"(33.7905, -118.275)",120
1609,"(33.7905, -118.2811)",128
1610,"(33.7905, -118.3011)",2
1611,"(33.7905, -118.3027)",4
1612,"(33.7905, -118.3043)",7
1613,"(33.7905, -118.3076)",24
1614,"(33.7906, -118.2389)",1
1615,"(33.7906, -118.24)",1
1616,"(33.7906, -118.2739)",29
1617,"(33.7906, -118.282)",10
1618,"(33.7906, -118.2821)",10
1619,"(33.7907, -118.2719)",17
1620,"(33.7907, -118.2729)",22
1621,"(33.7907, -118.273)",3
1622,"(33.7907, -118.2827)",3
1623,"(33.7907, -118.2828)",178
1624,"(33.7907, -118.2934)",1
1625,"(33.7908, -118.2697)",43
1626,"(33.7908, -118.2708)",29
1627,"(33.7908, -118.2709)",4
1628,"(33.7909, -118.2481)",47
1629,"(33.7909, -118.2482)",2
1630,"(33.7909, -118.2494)",11
1631,"(33.7909, -118.251)",52
1632,"(33.7909, -118.2679)",11
1633,"(33.7909, -118.2688)",3
1634,"(33.7909, -118.269)",1
1635,"(33.7909, -118.2813)",2
1636,"(33.7909, -118.2845)",12
1637,"(33.7909, -118.296)",3
1638,"(33.7909, -118.2975)",19
1639,"(33.7909, -118.2999)",4
1640,"(33.791, -118.2468)",13
1641,"(33.791, -118.2481)",2
1642,"(33.791, -118.2657)",44
1643,"(33.791, -118.2664)",2
1644,"(33.791, -118.267)",60
1645,"(33.791, -118.2671)",7
1646,"(33.791, -118.2865)",2
1647,"(33.791, -118.2872)",1
1648,"(33.791, -118.2889)",26
1649,"(33.791, -118.2899)",24
1650,"(33.791, -118.2908)",36
1651,"(33.791, -118.2917)",179
1652,"(33.791, -118.2936)",57
1653,"(33.791, -118.2999)",1
1654,"(33.791, -118.3011)",1
1655,"(33.7911, -118.229)",1
1656,"(33.7911, -118.2441)",1
1657,"(33.7911, -118.2447)",13
1658,"(33.7911, -118.2454)",60
1659,"(33.7911, -118.264)",64
1660,"(33.7911, -118.2646)",44
1661,"(33.7911, -118.2647)",7
1662,"(33.7911, -118.2652)",3
1663,"(33.7911, -118.2845)",3
1664,"(33.7912, -118.244)",20
1665,"(33.7912, -118.2627)",21
1666,"(33.7912, -118.2633)",54
1667,"(33.7913, -118.2408)",32
1668,"(33.7913, -118.2414)",10
1669,"(33.7913, -118.2552)",2
1670,"(33.7913, -118.2616)",38
1671,"(33.7913, -118.2777)",4
1672,"(33.7914, -118.2389)",8
1673,"(33.7914, -118.2562)",2
1674,"(33.7915, -118.2379)",4
1675,"(33.7915, -118.2381)",27
1676,"(33.7915, -118.2389)",1
1677,"(33.7915, -118.2562)",2
1678,"(33.7915, -118.2751)",37
1679,"(33.7915, -118.3011)",2
1680,"(33.7915, -118.3027)",3
1681,"(33.7915, -118.3043)",9
1682,"(33.7915, -118.3076)",10
1683,"(33.7916, -118.2494)",4
1684,"(33.7916, -118.2511)",4
1685,"(33.7916, -118.2562)",66
1686,"(33.7916, -118.2616)",18
1687,"(33.7917, -118.2311)",1
1688,"(33.7917, -118.2776)",1
1689,"(33.7917, -118.2811)",1
1690,"(33.7917, -118.2813)",1
1691,"(33.7918, -118.2455)",2
1692,"(33.7918, -118.2469)",1
1693,"(33.7919, -118.2441)",2
1694,"(33.7919, -118.2959)",2
1695,"(33.7919, -118.2975)",8
1696,"(33.7921, -118.2434)",7
1697,"(33.7921, -118.2563)",5
1698,"(33.7921, -118.2617)",3
1699,"(33.7922, -118.241)",1
1700,"(33.7922, -118.2658)",7
1701,"(33.7923, -118.2607)",3
1702,"(33.7923, -118.2751)",2
1703,"(33.7924, -118.2501)",1
1704,"(33.7924, -118.2511)",2
1705,"(33.7924, -118.2751)",7
1706,"(33.7925, -118.2482)",3
1707,"(33.7925, -118.2802)",1
1708,"(33.7925, -118.2909)",1
1709,"(33.7925, -118.2999)",2
1710,"(33.7925, -118.3012)",2
1711,"(33.7925, -118.3027)",5
1712,"(33.7925, -118.3043)",9
1713,"(33.7925, -118.3076)",18
1714,"(33.7926, -118.3043)",50
1715,"(33.7927, -118.2403)",10
1716,"(33.7927, -118.2435)",3
1717,"(33.7927, -118.2455)",3
1718,"(33.7927, -118.2577)",1
1719,"(33.7927, -118.2751)",2
1720,"(33.7928, -118.273)",4
1721,"(33.7928, -118.274)",10
1722,"(33.7928, -118.2889)",5
1723,"(33.7928, -118.2909)",11
1724,"(33.7928, -118.2916)",1
1725,"(33.7928, -118.2959)",9
1726,"(33.7928, -118.2975)",17
1727,"(33.7929, -118.2709)",5
1728,"(33.7929, -118.272)",7
1729,"(33.793, -118.2428)",3
1730,"(33.793, -118.269)",3
1731,"(33.793, -118.2699)",10
1732,"(33.793, -118.27)",1
1733,"(33.7931, -118.2407)",3
1734,"(33.7931, -118.2456)",1
1735,"(33.7931, -118.2671)",5
1736,"(33.7931, -118.2681)",11
1737,"(33.7931, -118.2682)",1
1738,"(33.7932, -118.2648)",5
1739,"(33.7932, -118.2659)",4
1740,"(33.7932, -118.2802)",1
1741,"(33.7932, -118.2889)",2
1742,"(33.7933, -118.2512)",3
1743,"(33.7933, -118.2635)",17
1744,"(33.7933, -118.2641)",1
1745,"(33.7934, -118.24)",18
1746,"(33.7934, -118.2406)",7
1747,"(33.7934, -118.2751)",17
1748,"(33.7935, -118.2456)",4
1749,"(33.7935, -118.2596)",2
1750,"(33.7935, -118.2607)",4
1751,"(33.7936, -118.2578)",1
1752,"(33.7936, -118.2587)",1
1753,"(33.7937, -118.2429)",1
1754,"(33.7937, -118.2564)",3
1755,"(33.7937, -118.2569)",1
1756,"(33.7938, -118.2937)",2
1757,"(33.7938, -118.2959)",5
1758,"(33.7938, -118.2975)",7
1759,"(33.7938, -118.2999)",10
1760,"(33.7938, -118.3012)",5
1761,"(33.7938, -118.3027)",1
1762,"(33.7938, -118.3043)",1
1763,"(33.7938, -118.3076)",15
1764,"(33.794, -118.2824)",14
1765,"(33.7941, -118.2512)",3
1766,"(33.7941, -118.2803)",5
1767,"(33.7941, -118.29)",34
1768,"(33.7942, -118.2793)",2
1769,"(33.7942, -118.2916)",1
1770,"(33.7943, -118.2483)",1
1771,"(33.7943, -118.2512)",1
1772,"(33.7943, -118.2775)",3
1773,"(33.7944, -118.2456)",9
1774,"(33.7944, -118.2483)",2
1775,"(33.7944, -118.2564)",1
1776,"(33.7944, -118.2752)",6
1777,"(33.7945, -118.2415)",1
1778,"(33.7945, -118.2423)",3
1779,"(33.7947, -118.2908)",20
1780,"(33.7947, -118.2909)",2
1781,"(33.7947, -118.2918)",1
1782,"(33.7947, -118.2928)",3
1783,"(33.7947, -118.2937)",5
1784,"(33.7947, -118.2959)",1
1785,"(33.7947, -118.296)",4
1786,"(33.7947, -118.2975)",26
1787,"(33.7948, -118.2694)",56
1788,"(33.7948, -118.2752)",8
1789,"(33.7948, -118.2999)",13
1790,"(33.7948, -118.3011)",18
1791,"(33.7948, -118.3027)",3
1792,"(33.7948, -118.3043)",4
1793,"(33.7948, -118.306)",2
1794,"(33.7948, -118.3076)",21
1795,"(33.7949, -118.2732)",3
1796,"(33.7949, -118.2742)",3
1797,"(33.795, -118.2588)",2
1798,"(33.795, -118.2711)",3
1799,"(33.795, -118.2722)",1
1800,"(33.795, -118.2794)",1
1801,"(33.7951, -118.2565)",4
1802,"(33.7951, -118.2691)",2
1803,"(33.7951, -118.27)",3
1804,"(33.7951, -118.2774)",1
1805,"(33.7952, -118.2673)",2
1806,"(33.7952, -118.2682)",2
1807,"(33.7952, -118.2752)",11
1808,"(33.7953, -118.265)",6
1809,"(33.7953, -118.2655)",1
1810,"(33.7953, -118.2661)",4
1811,"(33.7954, -118.2636)",24
1812,"(33.7955, -118.262)",2
1813,"(33.7956, -118.2598)",2
1814,"(33.7956, -118.2609)",4
1815,"(33.7957, -118.2457)",2
1816,"(33.7957, -118.2571)",2
1817,"(33.7957, -118.258)",1
1818,"(33.7958, -118.2937)",3
1819,"(33.7958, -118.2959)",5
1820,"(33.7958, -118.2975)",10
1821,"(33.7958, -118.3011)",2
1822,"(33.7958, -118.3027)",2
1823,"(33.7958, -118.3043)",4
1824,"(33.7958, -118.3076)",13
1825,"(33.7959, -118.2415)",5
1826,"(33.7959, -118.2774)",1
1827,"(33.7961, -118.2752)",4
1828,"(33.7964, -118.2742)",1
1829,"(33.7965, -118.2637)",3
1830,"(33.7965, -118.2712)",2
1831,"(33.7965, -118.2723)",2
1832,"(33.7965, -118.2733)",2
1833,"(33.7967, -118.2774)",1
1834,"(33.7967, -118.2797)",2
1835,"(33.7968, -118.2774)",1
1836,"(33.7968, -118.2937)",4
1837,"(33.7968, -118.2959)",1
1838,"(33.7968, -118.2975)",5
1839,"(33.7968, -118.2999)",4
1840,"(33.7968, -118.3011)",1
1841,"(33.7968, -118.3027)",4
1842,"(33.7968, -118.3043)",7
1843,"(33.7968, -118.3076)",14
1844,"(33.7969, -118.2743)",6
1845,"(33.7969, -118.2752)",16
1846,"(33.7971, -118.1807)",1
1847,"(33.7971, -118.2702)",1
1848,"(33.7971, -118.2713)",2
1849,"(33.7972, -118.2684)",1
1850,"(33.7972, -118.2693)",2
1851,"(33.7973, -118.2675)",3
1852,"(33.7974, -118.2372)",50
1853,"(33.7974, -118.2651)",4
1854,"(33.7974, -118.2664)",2
1855,"(33.7975, -118.2638)",15
1856,"(33.7975, -118.2645)",1
1857,"(33.7976, -118.261)",3
1858,"(33.7976, -118.2621)",3
1859,"(33.7977, -118.2773)",2
1860,"(33.7978, -118.2753)",4
1861,"(33.7978, -118.283)",10
1862,"(33.7978, -118.2875)",1
1863,"(33.7978, -118.2898)",7
1864,"(33.7978, -118.2908)",26
1865,"(33.7978, -118.2917)",1
1866,"(33.7978, -118.2918)",1
1867,"(33.7978, -118.2928)",9
1868,"(33.7978, -118.2937)",10
1869,"(33.7978, -118.2959)",2
1870,"(33.7978, -118.2975)",38
1871,"(33.7978, -118.2992)",24
1872,"(33.7978, -118.2999)",31
1873,"(33.7978, -118.3011)",29
1874,"(33.7978, -118.3027)",8
1875,"(33.7978, -118.3042)",2
1876,"(33.7978, -118.3043)",31
1877,"(33.7978, -118.3076)",120
1878,"(33.7978, -118.3088)",2
1879,"(33.798, -118.2604)",25
1880,"(33.7983, -118.283)",25
1881,"(33.7984, -118.2639)",4
1882,"(33.7984, -118.2799)",5
1883,"(33.7985, -118.2773)",2
1884,"(33.7986, -118.2753)",22
1885,"(33.7986, -118.2773)",7
1886,"(33.7987, -118.2743)",7
1887,"(33.7987, -118.2753)",1
1888,"(33.7987, -118.3041)",3
1889,"(33.7987, -118.3064)",1
1890,"(33.7987, -118.3073)",1
1891,"(33.7987, -118.3075)",1
1892,"(33.7988, -118.2703)",6
1893,"(33.7988, -118.2714)",3
1894,"(33.7989, -118.2685)",4
1895,"(33.7989, -118.2694)",3
1896,"(33.799, -118.2459)",1
1897,"(33.799, -118.2673)",2
1898,"(33.799, -118.2676)",4
1899,"(33.7991, -118.2639)",4
1900,"(33.7991, -118.2646)",1
1901,"(33.7991, -118.2652)",4
1902,"(33.7991, -118.2659)",1
1903,"(33.7992, -118.2639)",41
1904,"(33.7993, -118.2612)",4
1905,"(33.7993, -118.2623)",3
1906,"(33.7994, -118.2601)",7
1907,"(33.7995, -118.2585)",13
1908,"(33.7995, -118.3041)",2
1909,"(33.7995, -118.3073)",7
1910,"(33.7996, -118.2568)",18
1911,"(33.7996, -118.2575)",1
1912,"(33.7997, -118.2547)",2
1913,"(33.7999, -118.3037)",1
1914,"(33.8, -118.3036)",1
1915,"(33.8001, -118.2442)",5
1916,"(33.8001, -118.246)",3
1917,"(33.8001, -118.2639)",2
1918,"(33.8002, -118.2623)",2
1919,"(33.8002, -118.3073)",2
1920,"(33.8003, -118.134)",1
1921,"(33.8003, -118.2601)",3
1922,"(33.8003, -118.3023)",1
1923,"(33.8004, -118.293)",1
1924,"(33.801, -118.264)",8
1925,"(33.801, -118.3019)",1
1926,"(33.801, -118.3034)",1
1927,"(33.801, -118.3073)",16
1928,"(33.801, -118.3075)",4
1929,"(33.8011, -118.2594)",1
1930,"(33.8011, -118.2612)",1
1931,"(33.8011, -118.2623)",1
1932,"(33.8016, -118.3042)",26
1933,"(33.8018, -118.3034)",2
1934,"(33.8018, -118.3077)",2
1935,"(33.8019, -118.2602)",1
1936,"(33.8019, -118.2612)",2
1937,"(33.8019, -118.264)",1
1938,"(33.802, -118.2576)",1
1939,"(33.8023, -118.1481)",1
1940,"(33.8025, -118.3018)",1
1941,"(33.8026, -118.3077)",1
1942,"(33.8028, -118.2623)",5
1943,"(33.8028, -118.2631)",2
1944,"(33.8028, -118.264)",22
1945,"(33.8029, -118.2612)",12
1946,"(33.8035, -118.3008)",1
1947,"(33.8037, -118.264)",1
1948,"(33.8039, -118.3014)",1
1949,"(33.804, -118.3033)",3
1950,"(33.8041, -118.3077)",1
1951,"(33.8044, -118.3075)",1
1952,"(33.8046, -118.2227)",5
1953,"(33.8046, -118.264)",2
1954,"(33.8047, -118.2579)",1
1955,"(33.8047, -118.2601)",1
1956,"(33.8047, -118.2605)",1
1957,"(33.8047, -118.2612)",2
1958,"(33.8048, -118.2235)",2
1959,"(33.805, -118.3033)",1
1960,"(33.805, -118.3054)",3
1961,"(33.805, -118.3075)",20
1962,"(33.805, -118.3077)",6
1963,"(33.8054, -118.3024)",1
1964,"(33.8057, -118.3077)",9
1965,"(33.8072, -118.3014)",1
1966,"(33.8072, -118.3076)",10
1967,"(33.8073, -118.3031)",4
1968,"(33.8081, -118.2346)",2
1969,"(33.8084, -118.2903)",1
1970,"(33.8087, -118.3081)",33
1971,"(33.8088, -118.3031)",2
1972,"(33.8089, -118.3069)",2
1973,"(33.8095, -118.3014)",1
1974,"(33.8099, -118.2984)",4
1975,"(33.8101, -118.2903)",1
1976,"(33.8102, -118.3054)",2
1977,"(33.8102, -118.3086)",8
1978,"(33.8104, -118.3003)",1
1979,"(33.8105, -118.3026)",1
1980,"(33.8105, -118.3044)",1
1981,"(33.8112, -118.3039)",24
1982,"(33.8113, -118.3088)",2
1983,"(33.8115, -118.3037)",2
1984,"(33.8127, -118.3089)",10
1985,"(33.8129, -118.3071)",4
1986,"(33.8132, -118.2982)",5
1987,"(33.8135, -118.2992)",1
1988,"(33.8135, -118.3089)",4
1989,"(33.8137, -118.3017)",2
1990,"(33.8141, -118.3089)",1
1991,"(33.8143, -118.3014)",12
1992,"(33.8151, -118.3861)",1
1993,"(33.8153, -118.3043)",1
1994,"(33.8154, -118.3045)",35
1995,"(33.817, -118.2996)",1
1996,"(33.817, -118.3089)",109
1997,"(33.8171, -118.1959)",1
1998,"(33.8172, -118.3089)",1
1999,"(33.818, -118.3089)",1
2000,"(33.819, -118.2982)",3
2001,"(33.819, -118.2996)",7
2002,"(33.819, -118.3015)",7
2003,"(33.819, -118.3037)",13
2004,"(33.819, -118.3063)",2
2005,"(33.819, -118.3066)",3
2006,"(33.8191, -118.3089)",30
2007,"(33.8202, -118.2995)",2
2008,"(33.8202, -118.3015)",18
2009,"(33.8202, -118.3037)",10
2010,"(33.8202, -118.3063)",8
2011,"(33.8202, -118.3089)",20
2012,"(33.8204, -118.3037)",31
2013,"(33.8209, -118.3015)",2
2014,"(33.8211, -118.3015)",10
2015,"(33.8212, -118.3089)",2
2016,"(33.8213, -118.3051)",1
2017,"(33.8213, -118.3064)",1
2018,"(33.8214, -118.3037)",4
2019,"(33.8214, -118.3089)",12
2020,"(33.8216, -118.3037)",3
2021,"(33.822, -118.3064)",1
2022,"(33.8221, -118.299)",6
2023,"(33.8222, -118.3037)",2
2024,"(33.8223, -118.2991)",6
2025,"(33.8223, -118.3015)",4
2026,"(33.8227, -118.3089)",8
2027,"(33.8229, -118.3089)",7
2028,"(33.8233, -118.3064)",11
2029,"(33.8233, -118.3089)",15
2030,"(33.8234, -118.3015)",4
2031,"(33.8234, -118.3037)",2
2032,"(33.8234, -118.3038)",5
2033,"(33.8243, -118.2246)",4
2034,"(33.8243, -118.2251)",1
2035,"(33.8245, -118.2992)",70
2036,"(33.8245, -118.3016)",4
2037,"(33.8245, -118.3038)",21
2038,"(33.8245, -118.3064)",13
2039,"(33.8245, -118.309)",36
2040,"(33.8246, -118.2281)",1
2041,"(33.8246, -118.2286)",5
2042,"(33.8246, -118.3016)",8
2043,"(33.8253, -118.2992)",1
2044,"(33.8256, -118.309)",3
2045,"(33.8257, -118.3016)",1
2046,"(33.8257, -118.3038)",4
2047,"(33.8257, -118.3064)",2
2048,"(33.8267, -118.1946)",1
2049,"(33.8268, -118.3038)",3
2050,"(33.8268, -118.3064)",1
2051,"(33.8268, -118.309)",1
2052,"(33.8269, -118.3016)",2
2053,"(33.8279, -118.309)",19
2054,"(33.828, -118.2992)",4
2055,"(33.828, -118.3016)",6
2056,"(33.828, -118.3038)",8
2057,"(33.828, -118.3064)",6
2058,"(33.8281, -118.2903)",1
2059,"(33.8281, -118.2992)",18
2060,"(33.8291, -118.3038)",5
2061,"(33.8291, -118.3064)",3
2062,"(33.8291, -118.3065)",5
2063,"(33.8291, -118.309)",5
2064,"(33.8292, -118.2995)",1
2065,"(33.8292, -118.3016)",4
2066,"(33.8303, -118.2263)",3
2067,"(33.8303, -118.3016)",4
2068,"(33.8303, -118.3038)",4
2069,"(33.8303, -118.3065)",10
2070,"(33.8303, -118.309)",4
2071,"(33.831, -118.3042)",20
2072,"(33.8315, -118.2996)",36
2073,"(33.8315, -118.3016)",22
2074,"(33.8315, -118.3038)",68
2075,"(33.8315, -118.3065)",51
2076,"(33.8315, -118.309)",4
2077,"(33.8315, -118.3091)",90
2078,"(33.8316, -118.2903)",1
2079,"(33.8316, -118.2953)",1
2080,"(33.8316, -118.2992)",49
2081,"(33.8316, -118.2996)",24
2082,"(33.8325, -118.2255)",1
2083,"(33.8325, -118.3017)",4
2084,"(33.8325, -118.3039)",7
2085,"(33.8325, -118.3065)",1
2086,"(33.8325, -118.3091)",9
2087,"(33.8326, -118.2996)",2
2088,"(33.8326, -118.3017)",1
2089,"(33.833, -118.299)",2
2090,"(33.8335, -118.3017)",3
2091,"(33.8335, -118.3039)",5
2092,"(33.8335, -118.3065)",2
2093,"(33.8335, -118.3091)",5
2094,"(33.8344, -118.2992)",11
2095,"(33.8344, -118.2996)",2
2096,"(33.8345, -118.2996)",1
2097,"(33.8345, -118.3017)",1
2098,"(33.8345, -118.3039)",5
2099,"(33.8345, -118.3065)",1
2100,"(33.8345, -118.3091)",7
2101,"(33.8351, -118.2996)",2
2102,"(33.8355, -118.3039)",3
2103,"(33.8355, -118.3065)",3
2104,"(33.8355, -118.3077)",1
2105,"(33.8355, -118.3091)",17
2106,"(33.8365, -118.2996)",1
2107,"(33.8365, -118.3039)",3
2108,"(33.837, -118.3065)",1
2109,"(33.8371, -118.3078)",1
2110,"(33.8373, -118.2992)",1
2111,"(33.8373, -118.3085)",1
2112,"(33.8374, -118.3092)",1
2113,"(33.838, -118.3017)",1
2114,"(33.838, -118.3024)",1
2115,"(33.8381, -118.3028)",1
2116,"(33.8381, -118.3092)",1
2117,"(33.8382, -118.3039)",2
2118,"(33.8382, -118.3092)",6
2119,"(33.8383, -118.2992)",1
2120,"(33.8383, -118.3092)",24
2121,"(33.8395, -118.3071)",1
2122,"(33.8399, -118.3039)",3
2123,"(33.8399, -118.3053)",1
2124,"(33.84, -118.3006)",2
2125,"(33.84, -118.3028)",4
2126,"(33.8403, -118.3059)",3
2127,"(33.8405, -118.3061)",5
2128,"(33.8409, -118.3066)",5
2129,"(33.8409, -118.3093)",5
2130,"(33.8417, -118.304)",10
2131,"(33.8419, -118.3029)",4
2132,"(33.8419, -118.304)",16
2133,"(33.8419, -118.3066)",5
2134,"(33.8419, -118.3093)",6
2135,"(33.842, -118.2962)",1
2136,"(33.842, -118.2992)",23
2137,"(33.842, -118.2996)",64
2138,"(33.842, -118.3007)",8
2139,"(33.842, -118.3017)",1
2140,"(33.842, -118.3018)",9
2141,"(33.8421, -118.29)",1
2142,"(33.8429, -118.304)",8
2143,"(33.8429, -118.3066)",9
2144,"(33.8429, -118.3093)",6
2145,"(33.8438, -118.304)",3
2146,"(33.8438, -118.3066)",5
2147,"(33.8438, -118.3093)",9
2148,"(33.8439, -118.304)",5
2149,"(33.8448, -118.304)",4
2150,"(33.8448, -118.3066)",2
2151,"(33.8448, -118.3093)",5
2152,"(33.8449, -118.304)",5
2153,"(33.8456, -118.2992)",4
2154,"(33.8457, -118.304)",2
2155,"(33.8457, -118.3066)",2
2156,"(33.8457, -118.3093)",3
2157,"(33.8462, -118.286)",2
2158,"(33.8463, -118.2904)",9
2159,"(33.8464, -118.2992)",2
2160,"(33.8468, -118.3041)",6
2161,"(33.8468, -118.3066)",4
2162,"(33.8468, -118.3093)",11
2163,"(33.8474, -118.3093)",4
2164,"(33.8481, -118.3041)",48
2165,"(33.8483, -118.2992)",3
2166,"(33.8495, -118.3093)",4
2167,"(33.8498, -118.2905)",4
2168,"(33.8498, -118.2953)",6
2169,"(33.8499, -118.293)",2
2170,"(33.85, -118.3032)",10
2171,"(33.8502, -118.2905)",19
2172,"(33.8503, -118.2992)",17
2173,"(33.8516, -118.2905)",2
2174,"(33.8524, -118.2924)",36
2175,"(33.8532, -118.2992)",1
2176,"(33.8533, -118.293)",1
2177,"(33.8542, -118.286)",4
2178,"(33.8542, -118.2905)",16
2179,"(33.8542, -118.293)",2
2180,"(33.8542, -118.2953)",3
2181,"(33.8542, -118.2992)",24
2182,"(33.8542, -118.3035)",5
2183,"(33.8554, -118.3926)",1
2184,"(33.8559, -118.1974)",2
2185,"(33.8561, -118.3928)",2
2186,"(33.8567, -118.3931)",1
2187,"(33.8567, -118.3971)",1
2188,"(33.8568, -118.2846)",1
2189,"(33.8571, -118.3035)",1
2190,"(33.8573, -118.3935)",1
2191,"(33.858, -118.2905)",1
2192,"(33.8581, -118.3975)",1
2193,"(33.8582, -118.3938)",3
2194,"(33.8582, -118.3965)",1
2195,"(33.8583, -118.2926)",2
2196,"(33.8583, -118.2953)",19
2197,"(33.8583, -118.2962)",1
2198,"(33.8583, -118.2992)",39
2199,"(33.8583, -118.2993)",140
2200,"(33.8583, -118.2994)",3
2201,"(33.8583, -118.3961)",1
2202,"(33.8584, -118.3022)",1
2203,"(33.8584, -118.3035)",37
2204,"(33.8584, -118.3051)",4
2205,"(33.8584, -118.3072)",4
2206,"(33.8584, -118.3093)",72
2207,"(33.8589, -118.2905)",140
2208,"(33.859, -118.3937)",2
2209,"(33.8595, -118.3983)",1
2210,"(33.8598, -118.2993)",1
2211,"(33.8598, -118.3091)",4
2212,"(33.8599, -118.2786)",2
2213,"(33.8599, -118.2993)",2
2214,"(33.86, -118.3091)",3
2215,"(33.8601, -118.288)",1
2216,"(33.8606, -118.2981)",1
2217,"(33.8607, -118.3919)",1
2218,"(33.8609, -118.2861)",10
2219,"(33.8609, -118.3091)",1
2220,"(33.8613, -118.2942)",2
2221,"(33.8614, -118.2848)",7
2222,"(33.8614, -118.285)",2
2223,"(33.862, -118.2906)",15
2224,"(33.862, -118.2911)",1
2225,"(33.862, -118.2916)",1
2226,"(33.862, -118.2942)",2
2227,"(33.862, -118.2967)",1
2228,"(33.862, -118.2982)",3
2229,"(33.862, -118.2993)",22
2230,"(33.862, -118.2996)",14
2231,"(33.862, -118.3026)",3
2232,"(33.862, -118.3039)",2
2233,"(33.862, -118.3091)",34
2234,"(33.8621, -118.2815)",14
2235,"(33.8627, -118.2909)",1
2236,"(33.8627, -118.2919)",1
2237,"(33.8627, -118.2966)",1
2238,"(33.8627, -118.307)",1
2239,"(33.8628, -118.2815)",37
2240,"(33.8628, -118.3946)",1
2241,"(33.8632, -118.3091)",4
2242,"(33.8638, -118.3048)",1
2243,"(33.8638, -118.307)",1
2244,"(33.8639, -118.2993)",2
2245,"(33.864, -118.2815)",1
2246,"(33.864, -118.2839)",1
2247,"(33.8648, -118.2931)",77
2248,"(33.865, -118.2905)",1
2249,"(33.8656, -118.2993)",1
2250,"(33.8656, -118.3026)",3
2251,"(33.8656, -118.3048)",2
2252,"(33.8656, -118.307)",5
2253,"(33.8656, -118.3091)",38
2254,"(33.8658, -118.2992)",8
2255,"(33.8659, -118.2992)",17
2256,"(33.8663, -118.2816)",1
2257,"(33.8664, -118.2905)",16
2258,"(33.8664, -118.2945)",2
2259,"(33.8672, -118.2906)",38
2260,"(33.868, -118.2992)",2
2261,"(33.8684, -118.2969)",7
2262,"(33.8692, -118.2991)",3
2263,"(33.8698, -118.2846)",1
2264,"(33.8698, -118.2849)",3
2265,"(33.8698, -118.285)",1
2266,"(33.8698, -118.2857)",8
2267,"(33.8698, -118.2858)",25
2268,"(33.8702, -118.2826)",1
2269,"(33.8703, -118.2816)",13
2270,"(33.8703, -118.2822)",5
2271,"(33.8705, -118.2908)",1
2272,"(33.8705, -118.2991)",5
2273,"(33.8714, -118.2908)",2
2274,"(33.8727, -118.2818)",3
2275,"(33.8727, -118.2909)",10
2276,"(33.8728, -118.2819)",4
2277,"(33.8729, -118.2909)",33
2278,"(33.8733, -118.282)",3
2279,"(33.8733, -118.4045)",1
2280,"(33.8736, -118.2883)",1
2281,"(33.8746, -118.2869)",1
2282,"(33.8747, -118.2883)",2
2283,"(33.8752, -118.2823)",1
2284,"(33.8754, -118.2883)",2
2285,"(33.8762, -118.2866)",1
2286,"(33.8768, -118.2911)",13
2287,"(33.877, -118.2824)",5
2288,"(33.877, -118.2836)",1
2289,"(33.8773, -118.2867)",16
2290,"(33.8776, -118.2884)",1
2291,"(33.8777, -118.2867)",1
2292,"(33.878, -118.2911)",6
2293,"(33.8781, -118.2899)",1
2294,"(33.8784, -118.2867)",2
2295,"(33.8788, -118.2883)",1
2296,"(33.8792, -118.289)",3
2297,"(33.8792, -118.2912)",16
2298,"(33.8793, -118.2855)",3
2299,"(33.8793, -118.2869)",1
2300,"(33.8794, -118.2825)",13
2301,"(33.8794, -118.2837)",8
2302,"(33.8798, -118.2901)",2
2303,"(33.8798, -118.2912)",5
2304,"(33.8799, -118.2869)",4
2305,"(33.8799, -118.2891)",6
2306,"(33.88, -118.4071)",1
2307,"(33.8802, -118.4066)",1
2308,"(33.8803, -118.2902)",1
2309,"(33.8803, -118.4084)",1
2310,"(33.8807, -118.2902)",7
2311,"(33.8807, -118.2912)",5
2312,"(33.8808, -118.2869)",2
2313,"(33.8808, -118.2891)",5
2314,"(33.8812, -118.2902)",1
2315,"(33.8813, -118.4077)",3
2316,"(33.8815, -118.4072)",2
2317,"(33.8816, -118.2902)",15
2318,"(33.8816, -118.2913)",25
2319,"(33.8817, -118.2856)",2
2320,"(33.8817, -118.2869)",1
2321,"(33.8817, -118.288)",3
2322,"(33.8817, -118.2891)",10
2323,"(33.8818, -118.2826)",2
2324,"(33.8818, -118.2837)",4
2325,"(33.8818, -118.2851)",1
2326,"(33.8818, -118.2855)",1
2327,"(33.8818, -118.2856)",6
2328,"(33.8819, -118.2826)",18
2329,"(33.882, -118.4033)",1
2330,"(33.8825, -118.2913)",6
2331,"(33.8825, -118.2915)",1
2332,"(33.8826, -118.2892)",3
2333,"(33.8826, -118.2902)",6
2334,"(33.8826, -118.4083)",1
2335,"(33.8827, -118.4079)",1
2336,"(33.8828, -118.2826)",8
2337,"(33.8829, -118.288)",1
2338,"(33.8829, -118.2881)",2
2339,"(33.8829, -118.4033)",2
2340,"(33.8831, -118.2892)",1
2341,"(33.8834, -118.2903)",3
2342,"(33.8834, -118.2913)",14
2343,"(33.8835, -118.2892)",1
2344,"(33.8838, -118.4033)",2
2345,"(33.8852, -118.2914)",12
2346,"(33.8853, -118.2882)",7
2347,"(33.8853, -118.2893)",13
2348,"(33.8853, -118.2903)",2
2349,"(33.8853, -118.2904)",6
2350,"(33.8854, -118.284)",1
2351,"(33.8854, -118.2841)",1
2352,"(33.8854, -118.2864)",3
2353,"(33.8854, -118.2871)",3
2354,"(33.8855, -118.2827)",22
2355,"(33.8857, -118.4033)",4
2356,"(33.8858, -118.4101)",1
2357,"(33.8861, -118.2914)",1
2358,"(33.8861, -118.2924)",1
2359,"(33.8865, -118.3786)",1
2360,"(33.8866, -118.4033)",1
2361,"(33.8869, -118.2842)",1
2362,"(33.8871, -118.2893)",2
2363,"(33.8872, -118.2871)",1
2364,"(33.8873, -118.1627)",3
2365,"(33.8874, -118.3787)",1
2366,"(33.8879, -118.2871)",1
2367,"(33.8879, -118.2872)",2
2368,"(33.8883, -118.2842)",1
2369,"(33.8887, -118.287)",53
2370,"(33.8889, -118.2894)",3
2371,"(33.8889, -118.2904)",1
2372,"(33.8889, -118.2905)",4
2373,"(33.8889, -118.2914)",1
2374,"(33.8889, -118.2916)",19
2375,"(33.889, -118.2867)",1
2376,"(33.8891, -118.2829)",24
2377,"(33.8898, -118.2843)",1
2378,"(33.8898, -118.2905)",2
2379,"(33.8898, -118.2916)",1
2380,"(33.89, -118.2877)",1
2381,"(33.8901, -118.2877)",1
2382,"(33.8903, -118.4033)",3
2383,"(33.8907, -118.2895)",1
2384,"(33.8907, -118.2906)",4
2385,"(33.8907, -118.292)",1
2386,"(33.8908, -118.2906)",4
2387,"(33.8915, -118.2906)",1
2388,"(33.8917, -118.2873)",4
2389,"(33.8917, -118.2878)",1
2390,"(33.8918, -118.283)",1
2391,"(33.8923, -118.4033)",1
2392,"(33.8925, -118.2883)",30
2393,"(33.8925, -118.2898)",1
2394,"(33.8925, -118.2906)",9
2395,"(33.8925, -118.2917)",55
2396,"(33.8926, -118.2861)",3
2397,"(33.8926, -118.2873)",4
2398,"(33.8926, -118.2874)",36
2399,"(33.8926, -118.2883)",12
2400,"(33.8927, -118.283)",61
2401,"(33.8927, -118.2844)",3
2402,"(33.8927, -118.2856)",22
2403,"(33.893, -118.1628)",7
2404,"(33.894, -118.4136)",1
2405,"(33.8946, -118.414)",1
2406,"(33.8947, -118.2863)",1
2407,"(33.8947, -118.292)",2
2408,"(33.8948, -118.1628)",19
2409,"(33.8948, -118.283)",4
2410,"(33.8948, -118.2831)",7
2411,"(33.8949, -118.1548)",1
2412,"(33.8964, -118.2869)",1
2413,"(33.8965, -118.2892)",3
2414,"(33.8966, -118.2857)",1
2415,"(33.8967, -118.2857)",1
2416,"(33.8969, -118.2914)",15
2417,"(33.8969, -118.2916)",5
2418,"(33.8969, -118.415)",1
2419,"(33.8971, -118.2845)",5
2420,"(33.8975, -118.2832)",12
2421,"(33.8976, -118.2914)",2
2422,"(33.8981, -118.2831)",3
2423,"(33.8981, -118.4156)",1
2424,"(33.8983, -118.2876)",2
2425,"(33.8983, -118.2914)",5
2426,"(33.8986, -118.2857)",1
2427,"(33.8989, -118.2844)",2
2428,"(33.8989, -118.2876)",3
2429,"(33.899, -118.2876)",1
2430,"(33.899, -118.2896)",1
2431,"(33.899, -118.2915)",3
2432,"(33.8992, -118.1535)",1
2433,"(33.8996, -118.283)",6
2434,"(33.8996, -118.2844)",2
2435,"(33.8996, -118.2857)",1
2436,"(33.8996, -118.2876)",2
2437,"(33.8996, -118.2893)",1
2438,"(33.8997, -118.2893)",1
2439,"(33.8997, -118.2915)",4
2440,"(33.9011, -118.2893)",3
2441,"(33.9017, -118.2877)",12
2442,"(33.9017, -118.2893)",5
2443,"(33.9018, -118.3703)",1
2444,"(33.9019, -118.2827)",90
2445,"(33.9019, -118.283)",28
2446,"(33.9019, -118.2843)",11
2447,"(33.9019, -118.2865)",7
2448,"(33.9019, -118.2867)",5
2449,"(33.9019, -118.2893)",4
2450,"(33.9019, -118.2916)",88
2451,"(33.9021, -118.2893)",27
2452,"(33.9024, -118.2871)",32
2453,"(33.9028, -118.2827)",2
2454,"(33.9028, -118.2916)",1
2455,"(33.9029, -118.2872)",4
2456,"(33.9029, -118.2893)",2
2457,"(33.9038, -118.2893)",1
2458,"(33.9042, -118.2916)",1
2459,"(33.9043, -118.2695)",1
2460,"(33.9046, -118.2827)",11
2461,"(33.9046, -118.2872)",1
2462,"(33.9047, -118.2914)",4
2463,"(33.9048, -118.2916)",9
2464,"(33.9051, -118.2906)",2
2465,"(33.9057, -118.2899)",3
2466,"(33.9062, -118.2872)",2
2467,"(33.9062, -118.2891)",5
2468,"(33.9064, -118.2827)",1
2469,"(33.9065, -118.2914)",1
2470,"(33.9068, -118.2872)",1
2471,"(33.907, -118.2872)",1
2472,"(33.9077, -118.2872)",2
2473,"(33.9083, -118.2914)",1
2474,"(33.9084, -118.2872)",3
2475,"(33.9092, -118.2827)",79
2476,"(33.9092, -118.2861)",6
2477,"(33.9092, -118.2865)",1
2478,"(33.9092, -118.2867)",1
2479,"(33.9092, -118.2872)",6
2480,"(33.9092, -118.2894)",10
2481,"(33.9092, -118.2904)",5
2482,"(33.9092, -118.2914)",39
2483,"(33.9092, -118.2916)",7
2484,"(33.9092, -118.3004)",1
2485,"(33.9102, -118.2827)",2
2486,"(33.9102, -118.2894)",2
2487,"(33.9102, -118.2916)",3
2488,"(33.9103, -118.2872)",1
2489,"(33.9103, -118.2894)",3
2490,"(33.9113, -118.2872)",3
2491,"(33.9113, -118.2894)",2
2492,"(33.9113, -118.2916)",6
2493,"(33.9123, -118.2827)",13
2494,"(33.9123, -118.2872)",4
2495,"(33.9123, -118.2878)",2
2496,"(33.9123, -118.2894)",1
2497,"(33.9123, -118.2916)",9
2498,"(33.9128, -118.2869)",17
2499,"(33.9133, -118.2827)",5
2500,"(33.9133, -118.2871)",1
2501,"(33.9133, -118.2894)",2
2502,"(33.9134, -118.2916)",5
2503,"(33.9144, -118.1685)",1
2504,"(33.9144, -118.2827)",10
2505,"(33.9144, -118.2871)",1
2506,"(33.9144, -118.2894)",1
2507,"(33.9154, -118.2827)",4
2508,"(33.9154, -118.287)",4
2509,"(33.9154, -118.2894)",8
2510,"(33.9154, -118.2916)",10
2511,"(33.9162, -118.227)",1
2512,"(33.9164, -118.2783)",1
2513,"(33.9164, -118.2808)",1
2514,"(33.9164, -118.2827)",110
2515,"(33.9164, -118.2846)",7
2516,"(33.9164, -118.2851)",1
2517,"(33.9164, -118.286)",8
2518,"(33.9164, -118.2861)",3
2519,"(33.9164, -118.287)",53
2520,"(33.9164, -118.2894)",27
2521,"(33.9165, -118.288)",1
2522,"(33.9165, -118.2916)",57
2523,"(33.9165, -118.3091)",1
2524,"(33.9165, -118.4276)",38
2525,"(33.9171, -118.287)",1
2526,"(33.9176, -118.2827)",2
2527,"(33.9176, -118.2828)",11
2528,"(33.9176, -118.2915)",4
2529,"(33.9177, -118.288)",1
2530,"(33.918, -118.287)",4
2531,"(33.9182, -118.287)",2
2532,"(33.9183, -118.287)",1
2533,"(33.9183, -118.288)",1
2534,"(33.9184, -118.2859)",1
2535,"(33.9188, -118.2828)",6
2536,"(33.9188, -118.283)",4
2537,"(33.9191, -118.287)",2
2538,"(33.9191, -118.2876)",1
2539,"(33.9192, -118.2892)",1
2540,"(33.9193, -118.2915)",2
2541,"(33.9194, -118.2831)",7
2542,"(33.9197, -118.3708)",1
2543,"(33.9201, -118.2847)",1
2544,"(33.9201, -118.2868)",40
2545,"(33.9201, -118.287)",4
2546,"(33.9201, -118.2892)",2
2547,"(33.9201, -118.2897)",1
2548,"(33.9201, -118.2915)",7
2549,"(33.9201, -118.4295)",3
2550,"(33.9211, -118.2915)",7
2551,"(33.9212, -118.287)",1
2552,"(33.9212, -118.2888)",1
2553,"(33.9212, -118.2901)",1
2554,"(33.9213, -118.2696)",1
2555,"(33.9214, -118.2847)",3
2556,"(33.9221, -118.287)",3
2557,"(33.9221, -118.2915)",5
2558,"(33.9225, -118.2696)",1
2559,"(33.9225, -118.2782)",1
2560,"(33.9225, -118.2828)",9
2561,"(33.9225, -118.283)",6
2562,"(33.9228, -118.2556)",1
2563,"(33.9228, -118.2849)",1
2564,"(33.9231, -118.287)",3
2565,"(33.9232, -118.2901)",5
2566,"(33.9233, -118.2391)",1
2567,"(33.9234, -118.4285)",20
2568,"(33.9237, -118.2543)",116
2569,"(33.9237, -118.2556)",10
2570,"(33.9237, -118.2586)",18
2571,"(33.9237, -118.2597)",1
2572,"(33.9237, -118.2614)",10
2573,"(33.9237, -118.2622)",13
2574,"(33.9237, -118.2652)",111
2575,"(33.9237, -118.2667)",1
2576,"(33.9237, -118.2681)",2
2577,"(33.9237, -118.2696)",63
2578,"(33.9237, -118.2717)",3
2579,"(33.9237, -118.2739)",40
2580,"(33.9237, -118.2761)",2
2581,"(33.9237, -118.2782)",39
2582,"(33.9237, -118.2804)",3
2583,"(33.9237, -118.2826)",50
2584,"(33.9237, -118.2828)",6
2585,"(33.9237, -118.2848)",3
2586,"(33.9237, -118.287)",25
2587,"(33.9237, -118.2881)",3
2588,"(33.9237, -118.2891)",9
2589,"(33.9237, -118.2902)",7
2590,"(33.9237, -118.2915)",65
2591,"(33.9237, -118.2918)",1
2592,"(33.9237, -118.4314)",10
2593,"(33.9243, -118.2556)",1
2594,"(33.9243, -118.2586)",4
2595,"(33.9245, -118.4318)",156
2596,"(33.9246, -118.2391)",1
2597,"(33.9246, -118.2586)",1
2598,"(33.9246, -118.2604)",1
2599,"(33.9246, -118.2622)",3
2600,"(33.9246, -118.4319)",4
2601,"(33.9247, -118.2622)",4
2602,"(33.9247, -118.2652)",29
2603,"(33.9247, -118.2681)",2
2604,"(33.9247, -118.2696)",14
2605,"(33.9247, -118.2717)",1
2606,"(33.9247, -118.2739)",13
2607,"(33.9247, -118.2782)",13
2608,"(33.9247, -118.2804)",2
2609,"(33.9247, -118.2826)",7
2610,"(33.9248, -118.2543)",8
2611,"(33.9248, -118.255)",2
2612,"(33.9249, -118.2543)",21
2613,"(33.9249, -118.2848)",2
2614,"(33.9249, -118.287)",6
2615,"(33.925, -118.2826)",6
2616,"(33.9251, -118.2915)",13
2617,"(33.9253, -118.255)",1
2618,"(33.9253, -118.2586)",3
2619,"(33.9256, -118.2603)",1
2620,"(33.9256, -118.2605)",1
2621,"(33.9256, -118.2622)",8
2622,"(33.9256, -118.2652)",17
2623,"(33.9256, -118.2695)",13
2624,"(33.9256, -118.2717)",2
2625,"(33.9256, -118.2739)",11
2626,"(33.9256, -118.2761)",2
2627,"(33.9256, -118.2782)",14
2628,"(33.9256, -118.2801)",2
2629,"(33.9256, -118.2826)",5
2630,"(33.926, -118.2586)",2
2631,"(33.9261, -118.287)",2
2632,"(33.9262, -118.2826)",7
2633,"(33.9262, -118.2848)",2
2634,"(33.9263, -118.37)",1
2635,"(33.9264, -118.253)",2
2636,"(33.9264, -118.2543)",51
2637,"(33.9264, -118.255)",4
2638,"(33.9265, -118.2557)",1
2639,"(33.9265, -118.2586)",2
2640,"(33.9265, -118.2622)",11
2641,"(33.9265, -118.2652)",46
2642,"(33.9265, -118.2695)",22
2643,"(33.9265, -118.2739)",14
2644,"(33.9265, -118.2761)",3
2645,"(33.9265, -118.2782)",9
2646,"(33.9265, -118.2796)",1
2647,"(33.9265, -118.2881)",2
2648,"(33.9265, -118.2893)",4
2649,"(33.9265, -118.2902)",6
2650,"(33.9265, -118.2903)",2
2651,"(33.9266, -118.2604)",1
2652,"(33.9267, -118.2565)",1
2653,"(33.9267, -118.2586)",3
2654,"(33.9267, -118.2622)",3
2655,"(33.927, -118.258)",30
2656,"(33.9271, -118.2659)",34
2657,"(33.9271, -118.276)",70
2658,"(33.9274, -118.2739)",21
2659,"(33.9274, -118.2761)",5
2660,"(33.9274, -118.2782)",25
2661,"(33.9274, -118.2789)",1
2662,"(33.9274, -118.2796)",1
2663,"(33.9274, -118.2826)",35
2664,"(33.9274, -118.2848)",3
2665,"(33.9274, -118.287)",11
2666,"(33.9274, -118.2871)",71
2667,"(33.9274, -118.2893)",3
2668,"(33.9274, -118.2915)",8
2669,"(33.9274, -118.2916)",20
2670,"(33.9275, -118.2652)",6
2671,"(33.9277, -118.2652)",5
2672,"(33.9278, -118.2695)",10
2673,"(33.9279, -118.4313)",3
2674,"(33.928, -118.2543)",7
2675,"(33.9281, -118.2543)",3
2676,"(33.9282, -118.2543)",11
2677,"(33.9283, -118.2586)",1
2678,"(33.9283, -118.2622)",10
2679,"(33.9283, -118.2652)",19
2680,"(33.9283, -118.2664)",4
2681,"(33.9283, -118.2695)",12
2682,"(33.9283, -118.2739)",3
2683,"(33.9284, -118.2739)",3
2684,"(33.9284, -118.2916)",4
2685,"(33.9285, -118.2782)",2
2686,"(33.9285, -118.281)",2
2687,"(33.9285, -118.2826)",6
2688,"(33.9285, -118.287)",2
2689,"(33.9287, -118.2565)",1
2690,"(33.9287, -118.4317)",1
2691,"(33.9287, -118.4326)",1
2692,"(33.9289, -118.287)",4
2693,"(33.9289, -118.2916)",2
2694,"(33.929, -118.2303)",50
2695,"(33.929, -118.2782)",7
2696,"(33.929, -118.2803)",1
2697,"(33.929, -118.2826)",4
2698,"(33.9292, -118.2363)",7
2699,"(33.9292, -118.2565)",2
2700,"(33.9292, -118.2586)",14
2701,"(33.9292, -118.2604)",1
2702,"(33.9292, -118.2622)",10
2703,"(33.9292, -118.2652)",30
2704,"(33.9292, -118.2664)",5
2705,"(33.9292, -118.2695)",14
2706,"(33.9292, -118.2717)",1
2707,"(33.9292, -118.2739)",8
2708,"(33.9292, -118.2826)",2
2709,"(33.9293, -118.2363)",3
2710,"(33.9294, -118.238)",3
2711,"(33.9294, -118.2391)",6
2712,"(33.9295, -118.2391)",40
2713,"(33.9295, -118.2435)",31
2714,"(33.9295, -118.2462)",121
2715,"(33.9295, -118.2493)",36
2716,"(33.9295, -118.2501)",1
2717,"(33.9295, -118.2504)",5
2718,"(33.9295, -118.2522)",17
2719,"(33.9295, -118.2543)",242
2720,"(33.9295, -118.2565)",20
2721,"(33.9295, -118.4325)",1
2722,"(33.9296, -118.2304)",1
2723,"(33.9296, -118.2565)",24
2724,"(33.9296, -118.2739)",3
2725,"(33.9297, -118.2305)",12
2726,"(33.9297, -118.2316)",4
2727,"(33.9297, -118.2335)",19
2728,"(33.9298, -118.2826)",7
2729,"(33.9298, -118.287)",10
2730,"(33.9299, -118.2257)",1
2731,"(33.9299, -118.2722)",2
2732,"(33.9299, -118.3785)",3
2733,"(33.9301, -118.2586)",4
2734,"(33.9301, -118.2621)",7
2735,"(33.9301, -118.2652)",20
2736,"(33.9301, -118.2664)",6
2737,"(33.9301, -118.2695)",13
2738,"(33.9301, -118.2739)",6
2739,"(33.9301, -118.276)",1
2740,"(33.9301, -118.2761)",1
2741,"(33.9301, -118.2771)",6
2742,"(33.9301, -118.2782)",5
2743,"(33.9301, -118.2893)",2
2744,"(33.9301, -118.2916)",16
2745,"(33.9301, -118.37)",4
2746,"(33.9303, -118.2391)",38
2747,"(33.9303, -118.2402)",4
2748,"(33.9303, -118.2435)",8
2749,"(33.9303, -118.2463)",18
2750,"(33.9303, -118.2473)",5
2751,"(33.9303, -118.2493)",29
2752,"(33.9303, -118.2532)",3
2753,"(33.9303, -118.2543)",1
2754,"(33.9304, -118.2306)",5
2755,"(33.9304, -118.2504)",5
2756,"(33.9304, -118.2532)",11
2757,"(33.9305, -118.2335)",15
2758,"(33.9305, -118.2349)",2
2759,"(33.9305, -118.2363)",25
2760,"(33.9305, -118.2386)",10
2761,"(33.9305, -118.3785)",6
2762,"(33.9306, -118.37)",7
2763,"(33.9307, -118.2582)",8
2764,"(33.9307, -118.2586)",6
2765,"(33.9308, -118.2695)",5
2766,"(33.9308, -118.4251)",3
2767,"(33.9308, -118.4349)",120
2768,"(33.9309, -118.2586)",41
2769,"(33.9309, -118.2603)",1
2770,"(33.9309, -118.2621)",11
2771,"(33.9309, -118.37)",56
2772,"(33.9309, -118.3711)",2
2773,"(33.9309, -118.3723)",20
2774,"(33.9309, -118.3751)",2
2775,"(33.9309, -118.3771)",1
2776,"(33.9309, -118.3782)",1
2777,"(33.9309, -118.3785)",98
2778,"(33.9309, -118.3788)",2
2779,"(33.9309, -118.3793)",2
2780,"(33.9309, -118.3832)",24
2781,"(33.9309, -118.3853)",11
2782,"(33.9309, -118.3857)",1
2783,"(33.9309, -118.3875)",11
2784,"(33.9309, -118.388)",8
2785,"(33.9309, -118.392)",8
2786,"(33.9309, -118.3942)",2
2787,"(33.9309, -118.3961)",197
2788,"(33.9309, -118.4292)",63
2789,"(33.931, -118.2504)",1
2790,"(33.931, -118.251)",15
2791,"(33.931, -118.2522)",10
2792,"(33.931, -118.2532)",15
2793,"(33.931, -118.2542)",78
2794,"(33.931, -118.2543)",1
2795,"(33.931, -118.2555)",5
2796,"(33.931, -118.2565)",8
2797,"(33.931, -118.2621)",17
2798,"(33.931, -118.2652)",112
2799,"(33.931, -118.2695)",8
2800,"(33.931, -118.2736)",3
2801,"(33.931, -118.2739)",148
2802,"(33.931, -118.2761)",14
2803,"(33.931, -118.2782)",9
2804,"(33.931, -118.2783)",119
2805,"(33.931, -118.2791)",7
2806,"(33.931, -118.2802)",8
2807,"(33.931, -118.2805)",1
2808,"(33.931, -118.2809)",1
2809,"(33.931, -118.2817)",71
2810,"(33.931, -118.2826)",253
2811,"(33.931, -118.2848)",20
2812,"(33.931, -118.287)",74
2813,"(33.931, -118.2893)",92
2814,"(33.931, -118.2915)",1
2815,"(33.931, -118.2916)",141
2816,"(33.931, -118.3785)",1
2817,"(33.931, -118.396)",1
2818,"(33.931, -118.3961)",11
2819,"(33.9311, -118.2391)",6
2820,"(33.9311, -118.2402)",4
2821,"(33.9311, -118.2425)",5
2822,"(33.9311, -118.2435)",6
2823,"(33.9311, -118.2443)",7
2824,"(33.9311, -118.2463)",61
2825,"(33.9311, -118.2472)",15
2826,"(33.9311, -118.2493)",29
2827,"(33.9311, -118.2586)",4
2828,"(33.9311, -118.2621)",5
2829,"(33.9311, -118.2652)",75
2830,"(33.9311, -118.2664)",12
2831,"(33.9311, -118.2687)",9
2832,"(33.9311, -118.2695)",2
2833,"(33.9312, -118.2308)",8
2834,"(33.9312, -118.2695)",66
2835,"(33.9314, -118.4019)",15
2836,"(33.9314, -118.4038)",2
2837,"(33.9314, -118.4079)",1
2838,"(33.9314, -118.416)",66
2839,"(33.9315, -118.232)",10
2840,"(33.9315, -118.2335)",16
2841,"(33.9315, -118.2363)",16
2842,"(33.9315, -118.239)",38
2843,"(33.9315, -118.2501)",12
2844,"(33.9315, -118.2789)",1
2845,"(33.9317, -118.2673)",3
2846,"(33.9317, -118.3741)",45
2847,"(33.9317, -118.3962)",2
2848,"(33.9319, -118.2555)",8
2849,"(33.9319, -118.257)",1
2850,"(33.9319, -118.2586)",20
2851,"(33.9319, -118.2603)",1
2852,"(33.9319, -118.2621)",3
2853,"(33.932, -118.2501)",2
2854,"(33.932, -118.251)",2
2855,"(33.932, -118.2621)",6
2856,"(33.932, -118.2642)",3
2857,"(33.932, -118.2652)",24
2858,"(33.932, -118.2673)",2
2859,"(33.932, -118.2695)",8
2860,"(33.932, -118.2739)",12
2861,"(33.932, -118.2783)",1
2862,"(33.932, -118.2785)",9
2863,"(33.932, -118.2787)",8
2864,"(33.932, -118.2791)",2
2865,"(33.932, -118.2794)",3
2866,"(33.932, -118.2826)",23
2867,"(33.932, -118.2848)",3
2868,"(33.932, -118.2869)",3
2869,"(33.932, -118.287)",2
2870,"(33.932, -118.2916)",1
2871,"(33.9321, -118.2308)",6
2872,"(33.9321, -118.2402)",11
2873,"(33.9321, -118.2425)",10
2874,"(33.9321, -118.2434)",1
2875,"(33.9321, -118.2443)",2
2876,"(33.9321, -118.2463)",24
2877,"(33.9321, -118.2522)",1
2878,"(33.9322, -118.2652)",16
2879,"(33.9322, -118.2869)",4
2880,"(33.9322, -118.2915)",2
2881,"(33.9323, -118.2502)",45
2882,"(33.9323, -118.2652)",10
2883,"(33.9324, -118.2621)",1
2884,"(33.9324, -118.2652)",7
2885,"(33.9324, -118.2673)",1
2886,"(33.9325, -118.2307)",4
2887,"(33.9325, -118.2318)",10
2888,"(33.9325, -118.232)",1
2889,"(33.9325, -118.2335)",14
2890,"(33.9325, -118.2349)",1
2891,"(33.9325, -118.2363)",10
2892,"(33.9325, -118.239)",25
2893,"(33.9325, -118.2642)",3
2894,"(33.9325, -118.2652)",7
2895,"(33.9326, -118.2502)",16
2896,"(33.9327, -118.2351)",94
2897,"(33.9328, -118.2555)",12
2898,"(33.9328, -118.2586)",14
2899,"(33.9328, -118.2621)",4
2900,"(33.9328, -118.2631)",4
2901,"(33.9329, -118.2826)",31
2902,"(33.9329, -118.2848)",6
2903,"(33.9329, -118.2869)",3
2904,"(33.9329, -118.2916)",2
2905,"(33.933, -118.2305)",2
2906,"(33.933, -118.2405)",2
2907,"(33.933, -118.2425)",10
2908,"(33.933, -118.2444)",1
2909,"(33.933, -118.2463)",16
2910,"(33.933, -118.2652)",21
2911,"(33.933, -118.2673)",4
2912,"(33.933, -118.2695)",22
2913,"(33.933, -118.2739)",32
2914,"(33.933, -118.2761)",2
2915,"(33.933, -118.2783)",11
2916,"(33.933, -118.2785)",5
2917,"(33.933, -118.2787)",5
2918,"(33.933, -118.2794)",1
2919,"(33.933, -118.2795)",4
2920,"(33.9331, -118.2511)",12
2921,"(33.9331, -118.2532)",9
2922,"(33.9331, -118.2542)",53
2923,"(33.9332, -118.2463)",21
2924,"(33.9332, -118.2473)",5
2925,"(33.9332, -118.2485)",13
2926,"(33.9332, -118.2522)",8
2927,"(33.9332, -118.3785)",1
2928,"(33.9333, -118.2586)",1
2929,"(33.9333, -118.3723)",2
2930,"(33.9334, -118.2304)",5
2931,"(33.9334, -118.2335)",6
2932,"(33.9334, -118.2349)",2
2933,"(33.9334, -118.2363)",7
2934,"(33.9334, -118.239)",13
2935,"(33.9334, -118.2869)",4
2936,"(33.9334, -118.29)",1
2937,"(33.9334, -118.2916)",13
2938,"(33.9335, -118.239)",41
2939,"(33.9335, -118.2402)",2
2940,"(33.9337, -118.2555)",11
2941,"(33.9337, -118.2586)",8
2942,"(33.9337, -118.2603)",3
2943,"(33.9338, -118.3962)",2
2944,"(33.9339, -118.2405)",3
2945,"(33.9339, -118.2409)",1
2946,"(33.9339, -118.2425)",3
2947,"(33.9339, -118.2434)",1
2948,"(33.9339, -118.2443)",2
2949,"(33.9339, -118.2596)",1
2950,"(33.9339, -118.2652)",51
2951,"(33.9339, -118.2673)",9
2952,"(33.9339, -118.2695)",17
2953,"(33.9339, -118.2717)",2
2954,"(33.9339, -118.2739)",24
2955,"(33.9339, -118.276)",1
2956,"(33.9339, -118.2781)",27
2957,"(33.9339, -118.2784)",5
2958,"(33.9339, -118.2785)",3
2959,"(33.9339, -118.2794)",19
2960,"(33.9339, -118.2795)",2
2961,"(33.9339, -118.2811)",18
2962,"(33.9339, -118.2815)",4
2963,"(33.9339, -118.2826)",25
2964,"(33.9339, -118.2848)",4
2965,"(33.9339, -118.2869)",4
2966,"(33.9339, -118.3785)",1
2967,"(33.934, -118.2302)",4
2968,"(33.9341, -118.2485)",6
2969,"(33.9343, -118.2335)",13
2970,"(33.9343, -118.2349)",2
2971,"(33.9343, -118.2363)",9
2972,"(33.9343, -118.239)",36
2973,"(33.9343, -118.2406)",5
2974,"(33.9344, -118.2301)",2
2975,"(33.9344, -118.3962)",2
2976,"(33.9345, -118.2623)",102
2977,"(33.9345, -118.263)",5
2978,"(33.9345, -118.2652)",20
2979,"(33.9345, -118.37)",30
2980,"(33.9345, -118.3712)",1
2981,"(33.9345, -118.3723)",6
2982,"(33.9345, -118.3785)",61
2983,"(33.9346, -118.2317)",4
2984,"(33.9346, -118.2869)",2
2985,"(33.9346, -118.2894)",3
2986,"(33.9346, -118.2916)",12
2987,"(33.9347, -118.2301)",6
2988,"(33.9347, -118.2309)",5
2989,"(33.9347, -118.2761)",185
2990,"(33.9348, -118.2425)",3
2991,"(33.9348, -118.2443)",5
2992,"(33.9348, -118.2463)",28
2993,"(33.9348, -118.2473)",2
2994,"(33.9348, -118.2479)",1
2995,"(33.9348, -118.2485)",15
2996,"(33.9348, -118.25)",2
2997,"(33.9348, -118.2516)",5
2998,"(33.9348, -118.263)",6
2999,"(33.9348, -118.2652)",40
3000,"(33.9348, -118.2673)",4
3001,"(33.9348, -118.2695)",19
3002,"(33.9348, -118.2739)",23
3003,"(33.9348, -118.2762)",3
3004,"(33.9348, -118.2781)",14
3005,"(33.9348, -118.2784)",8
3006,"(33.9348, -118.2793)",6
3007,"(33.9348, -118.2794)",1
3008,"(33.9348, -118.2826)",25
3009,"(33.9348, -118.2837)",1
3010,"(33.9348, -118.2848)",3
3011,"(33.9348, -118.2869)",4
3012,"(33.9349, -118.2313)",4
3013,"(33.935, -118.2559)",1
3014,"(33.9351, -118.2299)",2
3015,"(33.9351, -118.2318)",2
3016,"(33.9351, -118.2343)",7
3017,"(33.9351, -118.2349)",2
3018,"(33.9351, -118.2359)",6
3019,"(33.9351, -118.2369)",5
3020,"(33.9351, -118.2379)",11
3021,"(33.9351, -118.239)",7
3022,"(33.9351, -118.2542)",42
3023,"(33.9351, -118.2555)",7
3024,"(33.9352, -118.239)",34
3025,"(33.9352, -118.2411)",3
3026,"(33.9352, -118.2608)",4
3027,"(33.9352, -118.263)",1
3028,"(33.9353, -118.2281)",1
3029,"(33.9353, -118.2322)",3
3030,"(33.9355, -118.2327)",2
3031,"(33.9355, -118.2336)",2
3032,"(33.9355, -118.2916)",3
3033,"(33.9355, -118.4373)",1
3034,"(33.9355, -118.4386)",17
3035,"(33.9356, -118.2349)",1
3036,"(33.9356, -118.2781)",3
3037,"(33.9356, -118.2784)",9
3038,"(33.9356, -118.2792)",1
3039,"(33.9356, -118.2793)",1
3040,"(33.9356, -118.2808)",5
3041,"(33.9356, -118.2826)",28
3042,"(33.9356, -118.2848)",4
3043,"(33.9356, -118.2869)",10
3044,"(33.9357, -118.2331)",2
3045,"(33.9357, -118.2608)",5
3046,"(33.9357, -118.263)",5
3047,"(33.9357, -118.2652)",19
3048,"(33.9357, -118.2695)",9
3049,"(33.9357, -118.2717)",1
3050,"(33.9357, -118.2739)",21
3051,"(33.9357, -118.2762)",5
3052,"(33.9358, -118.2463)",30
3053,"(33.9358, -118.2481)",1
3054,"(33.9358, -118.25)",1
3055,"(33.9358, -118.2516)",10
3056,"(33.9358, -118.2916)",14
3057,"(33.9359, -118.2335)",3
3058,"(33.9359, -118.2587)",5
3059,"(33.9359, -118.2608)",11
3060,"(33.9359, -118.2695)",4
3061,"(33.936, -118.2296)",2
3062,"(33.936, -118.2338)",4
3063,"(33.936, -118.2348)",1
3064,"(33.9362, -118.2348)",1
3065,"(33.9362, -118.2379)",1
3066,"(33.9362, -118.239)",21
3067,"(33.9362, -118.2416)",5
3068,"(33.9363, -118.2426)",50
3069,"(33.9364, -118.2587)",6
3070,"(33.9365, -118.2348)",1
3071,"(33.9365, -118.2359)",2
3072,"(33.9365, -118.2587)",1
3073,"(33.9365, -118.2608)",8
3074,"(33.9365, -118.263)",7
3075,"(33.9365, -118.2652)",6
3076,"(33.9365, -118.2739)",10
3077,"(33.9365, -118.2762)",7
3078,"(33.9365, -118.2781)",4
3079,"(33.9365, -118.2784)",8
3080,"(33.9365, -118.2806)",3
3081,"(33.9365, -118.2826)",13
3082,"(33.9365, -118.2848)",4
3083,"(33.9365, -118.2869)",1
3084,"(33.9365, -118.2894)",1
3085,"(33.9365, -118.2916)",5
3086,"(33.9366, -118.2695)",8
3087,"(33.9366, -118.2739)",4
3088,"(33.9367, -118.2359)",2
3089,"(33.9367, -118.2871)",67
3090,"(33.9368, -118.2463)",31
3091,"(33.9368, -118.25)",4
3092,"(33.9368, -118.2519)",8
3093,"(33.9368, -118.252)",2
3094,"(33.9368, -118.2542)",49
3095,"(33.9369, -118.2293)",12
3096,"(33.9369, -118.2359)",3
3097,"(33.9369, -118.2369)",2
3098,"(33.9369, -118.2443)",14
3099,"(33.9369, -118.2542)",2
3100,"(33.937, -118.2302)",8
3101,"(33.9371, -118.2307)",1
3102,"(33.9371, -118.2369)",1
3103,"(33.9371, -118.239)",39
3104,"(33.9371, -118.2421)",4
3105,"(33.9372, -118.2312)",4
3106,"(33.9373, -118.2369)",2
3107,"(33.9373, -118.2587)",9
3108,"(33.9373, -118.2608)",21
3109,"(33.9373, -118.263)",5
3110,"(33.9373, -118.2652)",34
3111,"(33.9373, -118.2894)",3
3112,"(33.9373, -118.2916)",6
3113,"(33.9373, -118.3003)",2
3114,"(33.9374, -118.2321)",5
3115,"(33.9374, -118.2379)",2
3116,"(33.9374, -118.2652)",8
3117,"(33.9374, -118.2681)",2
3118,"(33.9374, -118.2695)",25
3119,"(33.9374, -118.2717)",3
3120,"(33.9374, -118.2739)",38
3121,"(33.9374, -118.2762)",3
3122,"(33.9374, -118.2781)",18
3123,"(33.9374, -118.2784)",2
3124,"(33.9374, -118.2792)",2
3125,"(33.9374, -118.2805)",1
3126,"(33.9374, -118.2826)",31
3127,"(33.9374, -118.2848)",2
3128,"(33.9374, -118.2869)",4
3129,"(33.9375, -118.2325)",4
3130,"(33.9376, -118.2329)",3
3131,"(33.9376, -118.2374)",2
3132,"(33.9377, -118.3745)",8
3133,"(33.9378, -118.238)",1
3134,"(33.9378, -118.2462)",49
3135,"(33.9378, -118.2481)",2
3136,"(33.9378, -118.2499)",1
3137,"(33.9378, -118.2518)",2
3138,"(33.9378, -118.2542)",42
3139,"(33.9379, -118.2291)",3
3140,"(33.9379, -118.239)",33
3141,"(33.9379, -118.2421)",2
3142,"(33.9379, -118.2425)",13
3143,"(33.9379, -118.2438)",5
3144,"(33.9379, -118.244)",7
3145,"(33.9379, -118.2462)",15
3146,"(33.938, -118.239)",5
3147,"(33.9381, -118.2369)",1
3148,"(33.9382, -118.2869)",14
3149,"(33.9382, -118.2894)",5
3150,"(33.9382, -118.2916)",44
3151,"(33.9382, -118.309)",17
3152,"(33.9382, -118.3102)",3
3153,"(33.9382, -118.3134)",2
3154,"(33.9382, -118.37)",1
3155,"(33.9383, -118.239)",41
3156,"(33.9383, -118.2494)",42
3157,"(33.9383, -118.2542)",85
3158,"(33.9383, -118.2565)",13
3159,"(33.9383, -118.2587)",9
3160,"(33.9383, -118.2608)",21
3161,"(33.9383, -118.263)",15
3162,"(33.9383, -118.2652)",78
3163,"(33.9383, -118.2654)",3
3164,"(33.9383, -118.2674)",4
3165,"(33.9383, -118.2695)",36
3166,"(33.9383, -118.2717)",2
3167,"(33.9383, -118.2739)",73
3168,"(33.9383, -118.2762)",14
3169,"(33.9383, -118.2781)",24
3170,"(33.9383, -118.2784)",21
3171,"(33.9383, -118.2792)",3
3172,"(33.9383, -118.2793)",18
3173,"(33.9383, -118.2805)",25
3174,"(33.9383, -118.2826)",78
3175,"(33.9383, -118.2848)",6
3176,"(33.9386, -118.2406)",5
3177,"(33.9387, -118.2428)",5
3178,"(33.9388, -118.2288)",4
3179,"(33.9388, -118.2296)",1
3180,"(33.9388, -118.2517)",5
3181,"(33.9388, -118.2535)",9
3182,"(33.9388, -118.2542)",16
3183,"(33.9389, -118.2296)",3
3184,"(33.9389, -118.2307)",8
3185,"(33.9389, -118.2317)",3
3186,"(33.9389, -118.2325)",5
3187,"(33.9389, -118.2328)",6
3188,"(33.9389, -118.2338)",11
3189,"(33.9389, -118.2348)",10
3190,"(33.9389, -118.2353)",3
3191,"(33.9389, -118.2359)",9
3192,"(33.9389, -118.2369)",5
3193,"(33.9389, -118.2379)",2
3194,"(33.9389, -118.239)",27
3195,"(33.9389, -118.2462)",19
3196,"(33.939, -118.2314)",25
3197,"(33.939, -118.2407)",1
3198,"(33.9391, -118.2826)",9
3199,"(33.9391, -118.2848)",3
3200,"(33.9391, -118.2869)",7
3201,"(33.9391, -118.2916)",11
3202,"(33.9391, -118.309)",2
3203,"(33.9392, -118.2739)",12
3204,"(33.9392, -118.2762)",5
3205,"(33.9392, -118.2781)",10
3206,"(33.9392, -118.2784)",2
3207,"(33.9392, -118.2805)",4
3208,"(33.9392, -118.2826)",20
3209,"(33.9393, -118.2541)",21
3210,"(33.9393, -118.2542)",1
3211,"(33.9393, -118.2565)",6
3212,"(33.9393, -118.2587)",5
3213,"(33.9393, -118.2608)",8
3214,"(33.9393, -118.263)",4
3215,"(33.9393, -118.2652)",50
3216,"(33.9393, -118.2673)",9
3217,"(33.9393, -118.2695)",24
3218,"(33.9393, -118.2717)",7
3219,"(33.9393, -118.2739)",18
3220,"(33.9394, -118.239)",3
3221,"(33.9396, -118.2497)",2
3222,"(33.9396, -118.2504)",1
3223,"(33.9396, -118.2517)",2
3224,"(33.9396, -118.253)",1
3225,"(33.9397, -118.2296)",2
3226,"(33.9397, -118.2307)",1
3227,"(33.9397, -118.2379)",1
3228,"(33.9397, -118.2462)",15
3229,"(33.9398, -118.239)",14
3230,"(33.9398, -118.2611)",37
3231,"(33.9398, -118.3962)",1
3232,"(33.9398, -118.4395)",1
3233,"(33.9399, -118.2362)",33
3234,"(33.9399, -118.2421)",1
3235,"(33.9399, -118.2426)",1
3236,"(33.9399, -118.2826)",9
3237,"(33.9399, -118.2848)",3
3238,"(33.9399, -118.2869)",12
3239,"(33.9399, -118.2894)",3
3240,"(33.9399, -118.2916)",32
3241,"(33.94, -118.309)",7
3242,"(33.94, -118.3102)",5
3243,"(33.94, -118.3112)",2
3244,"(33.94, -118.3134)",1
3245,"(33.94, -118.37)",5
3246,"(33.9401, -118.2541)",7
3247,"(33.9401, -118.2565)",7
3248,"(33.9401, -118.2587)",5
3249,"(33.9401, -118.2608)",3
3250,"(33.9401, -118.263)",2
3251,"(33.9401, -118.2652)",9
3252,"(33.9401, -118.2739)",2
3253,"(33.9401, -118.2761)",61
3254,"(33.9401, -118.2762)",8
3255,"(33.9401, -118.2781)",9
3256,"(33.9401, -118.2784)",1
3257,"(33.9401, -118.2793)",2
3258,"(33.9401, -118.2826)",14
3259,"(33.9402, -118.2652)",22
3260,"(33.9402, -118.2673)",4
3261,"(33.9402, -118.2695)",10
3262,"(33.9402, -118.2717)",1
3263,"(33.9402, -118.2739)",8
3264,"(33.9405, -118.2426)",2
3265,"(33.9406, -118.2296)",7
3266,"(33.9406, -118.2307)",4
3267,"(33.9406, -118.2317)",5
3268,"(33.9406, -118.2322)",4
3269,"(33.9406, -118.2328)",8
3270,"(33.9406, -118.2338)",12
3271,"(33.9406, -118.2348)",3
3272,"(33.9406, -118.2358)",9
3273,"(33.9406, -118.2359)",1
3274,"(33.9406, -118.2369)",8
3275,"(33.9406, -118.2379)",6
3276,"(33.9406, -118.2462)",22
3277,"(33.9406, -118.2472)",1
3278,"(33.9406, -118.2483)",4
3279,"(33.9406, -118.4343)",26
3280,"(33.9407, -118.239)",54
3281,"(33.9407, -118.2426)",2
3282,"(33.9407, -118.2869)",9
3283,"(33.9407, -118.2894)",3
3284,"(33.9407, -118.2916)",12
3285,"(33.9408, -118.2826)",11
3286,"(33.9408, -118.2848)",8
3287,"(33.9409, -118.309)",7
3288,"(33.941, -118.2516)",28
3289,"(33.941, -118.253)",5
3290,"(33.941, -118.2541)",31
3291,"(33.941, -118.2565)",6
3292,"(33.941, -118.2587)",4
3293,"(33.941, -118.2608)",11
3294,"(33.941, -118.263)",9
3295,"(33.941, -118.2652)",28
3296,"(33.941, -118.2673)",6
3297,"(33.941, -118.2695)",1
3298,"(33.941, -118.2762)",6
3299,"(33.941, -118.2781)",15
3300,"(33.941, -118.2784)",1
3301,"(33.941, -118.2794)",2
3302,"(33.941, -118.2805)",4
3303,"(33.941, -118.2826)",11
3304,"(33.9411, -118.239)",13
3305,"(33.9411, -118.2695)",18
3306,"(33.9411, -118.2717)",12
3307,"(33.9411, -118.2739)",13
3308,"(33.9411, -118.4402)",1
3309,"(33.9414, -118.4264)",2
3310,"(33.9415, -118.239)",16
3311,"(33.9415, -118.2436)",2
3312,"(33.9415, -118.2462)",10
3313,"(33.9415, -118.2477)",1
3314,"(33.9415, -118.2483)",2
3315,"(33.9415, -118.2869)",1
3316,"(33.9415, -118.2894)",5
3317,"(33.9415, -118.2916)",11
3318,"(33.9416, -118.2405)",3
3319,"(33.9416, -118.2406)",1
3320,"(33.9416, -118.2421)",2
3321,"(33.9416, -118.2426)",4
3322,"(33.9416, -118.2826)",3
3323,"(33.9416, -118.2848)",4
3324,"(33.9416, -118.2869)",5
3325,"(33.9417, -118.3113)",43
3326,"(33.9418, -118.3079)",2
3327,"(33.9418, -118.37)",23
3328,"(33.9419, -118.2541)",31
3329,"(33.9419, -118.2565)",11
3330,"(33.9419, -118.2587)",3
3331,"(33.9419, -118.2608)",6
3332,"(33.9419, -118.263)",7
3333,"(33.9419, -118.2638)",3
3334,"(33.9419, -118.2652)",51
3335,"(33.9419, -118.2673)",6
3336,"(33.9419, -118.2695)",25
3337,"(33.9419, -118.2717)",5
3338,"(33.9419, -118.2762)",4
3339,"(33.9419, -118.2781)",25
3340,"(33.9419, -118.2784)",5
3341,"(33.9419, -118.2794)",14
3342,"(33.9419, -118.2805)",17
3343,"(33.9419, -118.2826)",24
3344,"(33.9419, -118.3047)",1
3345,"(33.9419, -118.3057)",3
3346,"(33.9419, -118.3068)",1
3347,"(33.9419, -118.309)",36
3348,"(33.9419, -118.3102)",8
3349,"(33.9419, -118.3112)",2
3350,"(33.9419, -118.3123)",2
3351,"(33.9419, -118.3134)",2
3352,"(33.9419, -118.3708)",1
3353,"(33.9419, -118.3725)",1
3354,"(33.9419, -118.3745)",1
3355,"(33.9419, -118.4376)",13
3356,"(33.942, -118.2717)",14
3357,"(33.942, -118.2739)",19
3358,"(33.942, -118.3785)",31
3359,"(33.942, -118.4095)",351
3360,"(33.942, -118.4206)",1
3361,"(33.9423, -118.2396)",1
3362,"(33.9423, -118.2412)",2
3363,"(33.9423, -118.2485)",2
3364,"(33.9423, -118.2894)",4
3365,"(33.9423, -118.2916)",35
